tree
version=v4
num_class=3
num_tree_per_iteration=3
label_index=0
max_feature_idx=6
objective=multiclass num_class:3
feature_names=Size Weight Sweetness Crunchiness Juiciness Ripeness Acidity
feature_infos=[-6.7133151499999997:6.406366899] [-6.5566845100000002:5.1490002969999997] [-6.8944854940000004:6.3749155130000004] [-6.0550578049999997:7.6198518010000003] [-5.961897048:7.1485018309999999] [-5.6113999239999997:7.2378366840000004] [-7.0105384749999997:7.4047362379999999]
tree_sizes=2215 2216 239 2251 2247 221 2259 2255 221 2254 2253 222 2260 2256 222 2260 2256 222 2248 2246 222 2263 2263 222 2256 2254 222 2259 2253 222 2265 2255 222 2263 2263 222 2267 2259 222 2260 2258 222 2268 2262 222 2259 2251 222 2263 2257 222 2266 2260 222 2264 2258 222 2258 2252 222 2264 2258 222 2274 2272 222 2265 2261 222 2264 2262 222 2267 2259 222 2257 2251 222 2268 2266 222 2269 2263 222 2268 2266 222 2268 2260 222 2266 2258 222 2267 2265 222 2264 2256 222 2270 2263 223 2268 2264 223 2270 2260 223 2267 2259 223 2264 2264 223 2258 2252 223 2261 2259 223 2269 2269 223 2252 2246 223 2266 2264 223 2267 2261 223 2267 2265 223 2261 2259 223 2261 2259 223 2265 2259 223 2274 2270 223 2268 2268 223 2272 2270 223 2268 2266 223 2283 2277 223 2273 2267 223 2266 2260 223 2282 2276 223 2266 2260 223 2271 2265 223 2268 2260 223 2271 2265 223 2271 2265 223 2257 2255 223 2264 2258 223 2269 2263 223 2272 2268 223 2274 2268 223 2274 2272 223 2274 2268 223 2277 2269 223 2274 2270 223 2266 2262 223 2275 2271 223 2278 2276 223 2277 2271 223 2274 2270 223 2270 2266 223 2274 2272 223 2270 2264 223 2275 2273 223 2267 2263 223 2273 2269 223 2268 2266 223 2267 2263 223 2269 2275 223 2272 2268 223 2264 2268 223 2278 2274 223 2261 2267 223 2269 2267 223 2275 2273 223 2270 2268 223 2265 2269 223 2272 2270 223 2265 2261 223 2267 2261 223 2263 2265 223 2265 2263 223 2272 2274 223 2269 2267 223 2267 2265 223 2258 2256 223 2266 2266 223 2266 2268 223 2276 2274 223 2258 2260 223 2269 2267 223 2269 2265 223 2280 2276 223 2268 2268 223 2276 2270 223 2274 2270 223 2262 2264 223 2265 2263 223 2272 2268 223 2266 2266 223 2279 2273 223 2277 2275 223 2270 2266 223 2262 2266 223 2273 2275 223 2276 2270 223 2253 2253 223 2275 2273 223 2260 2264 223 2275 2279 223 2274 2270 223 2274 2278 223 2277 2275 223 2282 2286 223 2269 2267 223 2280 2284 223 2272 2270 223 2263 2263 223 2271 2279 223 2275 2271 223 2269 2265 223 2268 2268 223 2281 2277 223 2287 2293 223 2269 2267 223 2275 2273 223 2272 2278 223 2281 2279 223 2260 2262 223 2274 2280 223 2271 2273 223 2274 2270 223 2260 2262 223 2276 2274 223 2274 2272 223 2269 2267 223 2277 2279 223 2273 2281 223 2271 2267 223 2260 2260 223 2273 2271 223 2256 2258 223 2269 2277 223 2268 2268 223 2283 2281 223 2276 2282 223 2273 2271 223 2278 2282 223 2276 2272 223 2270 2276 223 2272 2268 223 2270 2278 223 2265 2275 223 2274 2278 223 2274 2274 223 2272 2278 223 2275 2269 223 2268 2266 223 2271 2267 223 2270 2266 223 2275 2281 223 2273 2275 223 2259 2269 223 2263 2267 223 2274 2278 223 2258 2262 223 2268 2264 223 2267 2271 223 2266 2262 223 2279 2283 223 2274 2266 223 2270 2274 223 2272 2274 223 2275 2271 223 2271 2275 223 2275 2279 223 2279 2275 223 2266 2264 223 2276 2284 223 2273 2279 223 2252 2258 223 2269 2269 223 2264 2270 223 2278 2272 223 2275 2271 223 2268 2276 223 2269 2267 223 2266 2260 223 2266 2264 223 2275 2279 223 2278 2272 223 2279 2275 223 2274 2268 223 2264 2266 223 2276 2272 223 2268 2270 223 2274 2268 223 2269 2269 223 2277 2275 223 2259 2263 223 2271 2267 223 2282 2280 223 2269 2271 223 2264 2270 223 2269 2275 223 2267 2269 223 2276 2278 223 2261 2263 223 2273 2275 223 2256 2258 223 2267 2269 223 2267 2267 223 2269 2265 223 2265 2265 223 2277 2279 223 2274 2276 223 2281 2283 223 2263 2263 223 2261 2263 223 2270 2270 223 2272 2274 223 2268 2270 223 2276 2272 223 2259 2261 223 2271 2265 223 2266 2270 223 2271 2269 223 2270 2268 223 2284 2278 223 2273 2273 223 2267 2269 223 2258 2254 223 2279 2273 223 2269 2269 223 2258 2256 223 2278 2276 223 2268 2266 223 2259 2257 223 2266 2266 223 2264 2262 223 2269 2275 223 2265 2263 223 2277 2279 223 2276 2276 223 2269 2267 223 2268 2266 223 2268 2266 223 2263 2265 223 2278 2278 223 2272 2278 223 2269 2265 223 2262 2258 223 2273 2273 223 2274 2274 223 2273 2273 223 2276 2274 223 2268 2268 223 2273 2271 223 2267 2267 223 2274 2274 223 2279 2277 223 2276 2276 223 2261 2265 223 2272 2272 223 2278 2278 223 2273 2273 223 2272 2276 223 2274 2274 223 2258 2262 223 2261 2261 223 2261 2259 223 2278 2278 223 2270 2268 223 2269 2265 223 2269 2271 223 2280 2282 223 2284 2280 223 2268 2264 223 2270 2266 223 2271 2269 223 2262 2262 223 2266 2270 223 2266 2268 223 2272 2272 223 2279 2277 223 2275 2275 223 2269 2267 223 2275 2275 223 2266 2266 223 2265 2265 223 2282 2278 223 2257 2257 223 2275 2275 223 2270 2268 223 2279 2277 223 2270 2264 223 2271 2271 223 2259 2267 223 2283 2277 223 2258 2260 223 2260 2260 223 2271 2269 223 2265 2261 223 2266 2264 223 2270 2270 223 2268 2266 223 2268 2268 223 2268 2266 223 2261 2261 223 2280 2276 223 2265 2267 223 2257 2257 223 2258 2260 223 2272 2272 223 2270 2268 223 2270 2268 223 2259 2259 223 2271 2267 223 2261 2266 224 2265 2261 224 2273 2275 224 2259 2261 224 2278 2278 224 2264 2266 224 2278 2280 224 2266 2270 224 2268 2264 224 2272 2268 224 2270 2270 224 2263 2263 224 2260 2262 224 2269 2265 224 2273 2269 224 2269 2265 224 2270 2266 224 2267 2271 224 2258 2266 224 2262 2262 224 2268 2270 224 2258 2266 224 2269 2265 224 2271 2273 224 2276 2272 224 2247 2249 224 2264 2268 224 2275 2271 224 2274 2268 224 2263 2261 224 2265 2267 224 2255 2257 224 2264 2258 224 2259 2265 224 2268 2274 224 2265 2269 224 2254 2260 224 2266 2262 224 2264 2264 224 2269 2273 224 2269 2263 224 2259 2265 224 2263 2269 224 2261 2269 224 2267 2271 224 2287 2283 224 2257 2261 224 2251 2255 224 2267 2267 224 2280 2274 224 2272 2268 224 2273 2271 224 2266 2274 224 2256 2252 224 2257 2259 224 2267 2267 224 2267 2263 224 2273 2271 224 2253 2259 224 2273 2275 224 2269 2273 224 2261 2265 224 2259 2259 224 2253 2263 224 2271 2269 224 2276 2272 224 2265 2263 224 2261 2267 224 2264 2264 224 2258 2256 224 2254 2264 224 2263 2267 224 2276 2274 224 2256 2266 224 2264 2268 224 2279 2279 224 2267 2269 224 2269 2271 224 2263 2263 224 2264 2270 224 2264 2268 224 2261 2263 224 2257 2255 224 2264 2262 224 2269 2273 224 2257 2263 224 2259 2257 224 2277 2277 224 2273 2271 224 2262 2260 224 2258 2266 224 2264 2262 224 2281 2283 224 2268 2264 224 2260 2266 224 2271 2275 224 2270 2270 224 2255 2261 224 2270 2270 224 2269 2271 224 2268 2270 224 2253 2261 224 2276 2274 224 2261 2259 224 2262 2260 224 2257 2257 224 2277 2277 224 2260 2260 224 2258 2260 224 2259 2263 224 2259 2259 224 2263 2261 224 2261 2263 224 2273 2277 224 2257 2255 224 2272 2274 224 2267 2265 224 2256 2254 224 2256 2258 224 2274 2272 224 2271 2271 224 2253 2261 224 2288 2288 224 2276 2276 224 2268 2272 224 2268 2272 224 2261 2259 224 2278 2280 224 2267 2269 224 2266 2264 224 2272 2272 224 2262 2260 224 2263 2263 224 2256 2254 224 2272 2272 224 2267 2269 224 2263 2273 224 2279 2281 224 2268 2270 224 2273 2273 224 2272 2270 224 2268 2270 224 2253 2251 224 2269 2273 224 2265 2269 224 2269 2265 224 2257 2255 224 2264 2262 224 2261 2257 224 2265 2263 224 2260 2256 224 2271 2273 224 2263 2267 224 2258 2260 224 2278 2278 224 2268 2266 224 2263 2259 224 2256 2258 224 2276 2280 224 2265 2265 224 2270 2272 224 2271 2277 224 2269 2269 224 2267 2263 224 2275 2273 224 2265 2255 224 2275 2273 224 2273 2271 224 2254 2254 224 2271 2269 224 2270 2268 224 2264 2270 224 2261 2261 224 2270 2266 224 2270 2272 224 2267 2267 224 2254 2266 224 2280 2274 224 2264 2264 224 2270 2278 224 2271 2267 224 2265 2265 224 2271 2271 224 2263 2269 224 2263 2257 224 2270 2268 224 2275 2279 224 2255 2259 224 2274 2278 224 2274 2280 224 2268 2270 224 2265 2259 224 2262 2260 224 2266 2262 224 2276 2276 224 2269 2275 224 2265 2267 224 2265 2259 224 2266 2262 224 2262 2270 224 2265 2263 224 2274 2272 224 2277 2275 224 2273 2275 224 2265 2267 224 2262 2260 224 2271 2269 224 2255 2255 224 2262 2270 224 2264 2262 224 2267 2265 224 2271 2263 224 2267 2265 224 2272 2278 224 2267 2269 224 2271 2269 224 2261 2267 224 2258 2258 224 2273 2271 224 2265 2265 224 2277 2275 224 2282 2280 224 2272 2274 224 2274 2272 224 2279 2277 224 2273 2275 224 2276 2278 224 2278 2274 224 2269 2267 224 2266 2268 224 2275 2271 224 2274 2274 224 2270 2272 224 2278 2280 224 2272 2270 224 2267 2269 224 2281 2281 224 2274 2274 224 2267 2269 224 2279 2279 224 2264 2264 224 2270 2270 224 2265 2265 224 2282 2278 224 2274 2272 224 2271 2273 224 2278 2276 224 2262 2260 224 2272 2270 224 2255 2259 224 2253 2255 224 2271 2273 224 2265 2271 224 2274 2276 224 2269 2275 224 2275 2283 224 2271 2265 224 2277 2275 224 2279 2269 224 2266 2270 224 2265 2261 224 2267 2259 224 2279 2277 224 2278 2280 224 2272 2270 224 2278 2288 224 2267 2271 224

Tree=0
num_leaves=20
num_cat=0
split_feature=4 5 0 2 1 1 6 0 6 0 4 5 2 1 0 2 6 5 5
split_gain=123.091 149.218 65.1661 43.5401 42.7644 40.7258 40.8143 74.9542 63.7942 31.1183 34.3574 28.1187 27.9947 21.5703 20.4019 17.2772 15.4275 14.8215 13.2295
threshold=-0.40145849599999994 1.9536338485000002 -0.27359598699999993 -1.4378454209999998 1.5356037885000002 -2.6658078654999993 -0.85210283299999989 0.16634496300000004 1.3024601170000001 -0.40776687799999994 -1.5523071174999996 -2.2201339929999997 -2.4107716684999994 -1.0933849754999998 1.5190662845000003 -0.94168731049999987 -0.44615459549999997 1.1677005820000002 -0.80587110799999995
decision_type=2 2 2 2 2 2 2 2 2 2 2 2 2 2 2 2 2 2 2
left_child=4 5 -3 14 9 -2 15 8 13 18 -11 -10 -9 -8 -4 17 -12 -7 -1
right_child=1 2 3 -5 -6 6 7 12 11 10 16 -13 -14 -15 -16 -17 -18 -19 -20
leaf_value=-0.69616745902426203 -0.70958282515702986 -0.68648752185618966 -0.68535661910518186 -0.70987631471412849 -0.70589611387128293 -0.7041954826020671 -0.70761949980323668 -0.69576023254683095 -0.70167222726254885 -0.69053328258067337 -0.69399668583422391 -0.6880475088742789 -0.70683059580829888 -0.69826544451031769 -0.70289674823613857 -0.70794142353020328 -0.70257927983557833 -0.69082270809870006 -0.68793838418620901
leaf_weight=22.874418258666992 74.248111724853516 94.872587203979492 17.999542236328129 25.124361038208008 25.124361038208008 28.874265670776367 36.374074935913086 27.374303817749023 18.374532699584961 80.247959136962891 32.624170303344727 86.247806549072266 137.99649047851562 76.498054504394531 10.499732971191404 116.24704360961914 58.498512268066406 11.624704360961912 133.87159538269043
leaf_count=61 198 253 48 67 67 77 97 73 49 214 87 230 368 204 28 310 156 31 357
internal_value=-0.698202 -0.700463 -0.691468 -0.700279 -0.693322 -0.702639 -0.701684 -0.699924 -0.696066 -0.692359 -0.695305 -0.69044 -0.704998 -0.70128 -0.691819 -0.705982 -0.699506 -0.700357 -0.689139
internal_weight=0 762.356 148.496 53.6236 353.241 613.859 539.611 382.865 217.494 328.117 171.371 104.622 165.371 112.872 28.4993 156.746 91.1227 40.499 156.746
internal_count=2975 2033 396 143 942 1637 1439 1021 580 875 457 279 441 301 76 418 243 108 418
is_linear=0
shrinkage=1


Tree=1
num_leaves=20
num_cat=0
split_feature=4 5 0 2 1 1 6 0 6 0 4 5 2 1 0 2 6 5 5
split_gain=123.091 149.218 65.1661 43.5401 42.7644 40.7258 40.8143 74.9542 63.7942 31.1183 34.3574 28.1187 27.9947 21.5703 20.4019 17.2772 15.4275 14.8215 13.2295
threshold=-0.40145849599999994 1.9536338485000002 -0.27359598699999993 -1.4378454209999998 1.5356037885000002 -2.6658078654999993 -0.85210283299999989 0.16634496300000004 1.3024601170000001 -0.40776687799999994 -1.5523071174999996 -2.2201339929999997 -2.4107716684999994 -1.0933849754999998 1.5190662845000003 -0.94168731049999987 -0.44615459549999997 1.1677005820000002 -0.80587110799999995
decision_type=2 2 2 2 2 2 2 2 2 2 2 2 2 2 2 2 2 2 2
left_child=4 5 -3 14 9 -2 15 8 13 18 -11 -10 -9 -8 -4 17 -12 -7 -1
right_child=1 2 3 -5 -6 6 7 12 11 10 16 -13 -14 -15 -16 -17 -18 -19 -20
leaf_value=-0.69015232435225071 -0.67673695821948288 -0.69983226152032307 -0.70096316427133087 -0.67644346866238425 -0.68042366950522981 -0.68212430077444564 -0.67870028357327605 -0.69055955082968179 -0.68464755611396388 -0.69578650079583937 -0.69232309754228882 -0.69827227450223384 -0.67948918756821386 -0.68805433886619505 -0.68342303514037417 -0.67837835984630945 -0.68374050354093441 -0.69549707527781268 -0.69838139919030373
leaf_weight=22.874418258666992 74.248111724853516 94.872587203979492 17.999542236328129 25.124361038208008 25.124361038208008 28.874265670776367 36.374074935913086 27.374303817749023 18.374532699584961 80.247959136962891 32.624170303344727 86.247806549072266 137.99649047851562 76.498054504394531 10.499732971191404 116.24704360961914 58.498512268066406 11.624704360961912 133.87159538269043
leaf_count=61 198 253 48 67 67 77 97 73 49 214 87 230 368 204 28 310 156 31 357
internal_value=-0.688118 -0.685857 -0.694852 -0.68604 -0.692998 -0.683681 -0.684636 -0.686396 -0.690254 -0.69396 -0.691015 -0.695879 -0.681322 -0.68504 -0.694501 -0.680338 -0.686813 -0.685963 -0.697181
internal_weight=0 762.356 148.496 53.6236 353.241 613.859 539.611 382.865 217.494 328.117 171.371 104.622 165.371 112.872 28.4993 156.746 91.1227 40.499 156.746
internal_count=2975 2033 396 143 942 1637 1439 1021 580 875 457 279 441 301 76 418 243 108 418
is_linear=0
shrinkage=1


Tree=2
num_leaves=1
num_cat=0
split_feature=
split_gain=
threshold=
decision_type=
left_child=
right_child=
leaf_value=-34.538776391283193
leaf_weight=
leaf_count=
internal_value=
internal_weight=
internal_count=
is_linear=0
shrinkage=1


Tree=3
num_leaves=20
num_cat=0
split_feature=4 5 0 2 1 6 0 6 1 0 0 4 5 2 3 0 6 6 2
split_gain=119.836 145.308 81.6556 72.0431 42.1545 42.7361 59.3552 51.9599 41.633 31.5095 30.2936 33.4464 23.7116 22.4271 17.5137 16.4667 15.0193 13.754 13.4115
threshold=-0.40145849599999994 1.6649372230000001 -0.78384035499999982 -1.4378454209999998 -2.0755826929999999 -0.85210283299999989 0.16634496300000004 1.5481793835000002 1.5356037885000002 1.5190662845000003 -0.40776687799999994 -1.5523071174999996 -2.6869946944999996 -2.4107716684999994 2.0704628635000004 0.22447754700000003 -0.44615459549999997 3.5398120900000003 1.2114763710000003
decision_type=2 2 2 2 2 2 2 2 2 2 2 2 2 2 2 2 2 2 2
left_child=8 4 -3 9 17 15 7 14 10 -4 -1 -12 -9 -8 18 -6 -13 -2 -7
right_child=1 2 3 -5 5 6 13 12 -10 -11 11 16 -14 -15 -16 -17 -18 -19 -20
leaf_value=0.00894182729895256 -0.011271983272277164 0.011575280320002717 0.012318666176121557 -0.011427810259195741 -0.0095914631543214581 0.0016551234015040862 0.0026153336581470872 -0.0048868590049276749 -0.0075926184746739353 -0.0052252797013248873 0.0075662769442942091 0.0041490917176020235 0.010314039752734813 -0.0081211395058929589 -0.011114177804913361 0.00069447153889093502 -0.0043192397439390483 0.0027601728096427382 -0.0075141906047861955
leaf_weight=156.74614343047142 101.97578731179237 100.11938184499741 32.2484330534935 40.490481168031693 115.1023445725441 66.371519356966019 23.249842941761017 11.999130249023436 25.12092462182045 14.998680233955382 80.249445140361786 32.62497666478157 70.872938364744186 119.22771924734116 19.122717708349228 17.997497081756592 58.494811534881592 7.4988944530487052 20.998149037361145
leaf_count=418 272 267 86 108 307 177 62 32 67 40 214 87 189 318 51 48 156 20 56
internal_value=0 -0.00223118 0.00540346 -0.00163934 -0.00472801 -0.00341349 -0.00149341 0.00217509 0.0048148 0.00674931 0.00576473 0.00285874 0.00811309 -0.00636914 -0.00244585 -0.00820062 -0.0012872 -0.0103108 -0.0005486
internal_weight=0 762.274 187.857 87.7376 574.417 464.942 331.842 189.364 353.236 47.2471 328.115 171.369 82.8721 142.478 106.492 133.1 91.1198 109.475 87.3697
internal_count=2975 2033 501 234 1532 1240 885 505 942 126 875 457 221 380 284 355 243 292 233
is_linear=0
shrinkage=0.01


Tree=4
num_leaves=20
num_cat=0
split_feature=4 5 0 2 1 6 0 6 1 0 0 4 5 2 3 0 6 6 2
split_gain=119.836 145.308 81.6556 72.0431 42.1545 42.7361 59.3552 51.9599 41.633 31.5095 30.2936 33.4464 23.7116 22.4271 17.5137 16.4667 15.0193 13.754 13.4115
threshold=-0.40145849599999994 1.6649372230000001 -0.78384035499999982 -1.4378454209999998 -2.0755826929999999 -0.85210283299999989 0.16634496300000004 1.5481793835000002 1.5356037885000002 1.5190662845000003 -0.40776687799999994 -1.5523071174999996 -2.6869946944999996 -2.4107716684999994 2.0704628635000004 0.22447754700000003 -0.44615459549999997 3.5398120900000003 1.2114763710000003
decision_type=2 2 2 2 2 2 2 2 2 2 2 2 2 2 2 2 2 2 2
left_child=8 4 -3 9 17 15 7 14 10 -4 -1 -12 -9 -8 18 -6 -13 -2 -7
right_child=1 2 3 -5 5 6 13 12 -10 -11 11 16 -14 -15 -16 -17 -18 -19 -20
leaf_value=-0.00894182729895256 0.011271983272277164 -0.011575280320002717 -0.012318666176121557 0.011427810259195741 0.0095914631543214581 -0.0016551234015040862 -0.0026153336581470872 0.0048868590049276749 0.0075926184746739353 0.0052252797013248873 -0.0075662769442942091 -0.0041490917176020235 -0.010314039752734813 0.0081211395058929589 0.011114177804913361 -0.00069447153889093502 0.0043192397439390483 -0.0027601728096427382 0.0075141906047861955
leaf_weight=156.74614343047142 101.97578731179237 100.11938184499741 32.2484330534935 40.490481168031693 115.1023445725441 66.371519356966019 23.249842941761017 11.999130249023436 25.12092462182045 14.998680233955382 80.249445140361786 32.62497666478157 70.872938364744186 119.22771924734116 19.122717708349228 17.997497081756592 58.494811534881592 7.4988944530487052 20.998149037361145
leaf_count=418 272 267 86 108 307 177 62 32 67 40 214 87 189 318 51 48 156 20 56
internal_value=0 0.00223118 -0.00540346 0.00163934 0.00472801 0.00341349 0.00149341 -0.00217509 -0.0048148 -0.00674931 -0.00576473 -0.00285874 -0.00811309 0.00636914 0.00244585 0.00820062 0.0012872 0.0103108 0.0005486
internal_weight=0 762.274 187.857 87.7376 574.417 464.942 331.842 189.364 353.236 47.2471 328.115 171.369 82.8721 142.478 106.492 133.1 91.1198 109.475 87.3697
internal_count=2975 2033 501 234 1532 1240 885 505 942 126 875 457 221 380 284 355 243 292 233
is_linear=0
shrinkage=0.01


Tree=5
num_leaves=1
num_cat=0
split_feature=
split_gain=
threshold=
decision_type=
left_child=
right_child=
leaf_value=0
leaf_weight=
leaf_count=
internal_value=
internal_weight=
internal_count=
is_linear=0
shrinkage=1


Tree=6
num_leaves=20
num_cat=0
split_feature=4 5 0 2 1 1 6 0 6 0 5 2 5 2 1 0 4 2 5
split_gain=116.681 141.753 61.8626 41.3251 40.5361 38.8436 38.7131 71.1074 60.5876 29.4986 32.6677 27.3761 26.8279 26.5942 20.6846 19.336 18.4974 16.5854 14.239
threshold=-0.40145849599999994 1.9536338485000002 -0.27359598699999993 -1.4378454209999998 1.5356037885000002 -2.6658078654999993 -0.85210283299999989 0.16634496300000004 1.3024601170000001 -0.40776687799999994 1.5371655400000004 -0.60636658499999985 -2.2201339929999997 -2.4107716684999994 -1.0933849754999998 1.5190662845000003 -1.7635167324999999 -0.94168731049999987 1.1677005820000002
decision_type=2 2 2 2 2 2 2 2 2 2 2 2 2 2 2 2 2 2 2
left_child=4 5 -3 15 9 -2 17 8 14 -1 16 -12 -10 -9 -8 -4 -11 18 -7
right_child=1 2 3 -5 -6 6 7 13 12 10 11 -13 -14 -15 -16 -17 -18 -19 -20
leaf_value=0.0088239509008747434 -0.011107184807888882 0.011419776237349792 0.012514586474941851 -0.01137514208571315 -0.0074932765195498833 -0.0058291131159123313 -0.0092100644874761918 0.0023837196203905335 -0.0034072420305602791 0.0093650725801676347 0.0039086824151271975 -0.012365391105965556 0.0099019448357585815 -0.0084065421164394166 -4.8585845527002278e-05 -0.0045634459841505642 0.0017917601010806531 -0.0094980935140116466 0.0072791063793849536
leaf_weight=156.72234073281288 74.197202354669571 94.844466656446457 17.992714405059818 25.105108320713043 25.114618867635727 28.865475416183472 36.357677519321442 27.374562442302704 18.372355461120605 59.993767738342285 19.123093456029892 22.496938139200211 86.231394469738007 137.93283724784851 76.494577944278717 10.497650146484373 69.741465449333191 116.18381255865097 11.623998284339903
leaf_count=418 198 253 48 67 67 77 97 73 49 160 51 60 230 368 204 28 186 310 31
internal_value=0 -0.00220202 0.00656693 -0.00202085 0.0047512 -0.00432325 -0.00339015 -0.00167623 0.00208174 0.00568853 0.00282086 -0.00488797 0.00756435 -0.0066197 -0.00300014 0.00622196 0.0052939 -0.00757738 -0.00206591
internal_weight=0 762.074 148.44 53.5955 353.192 613.634 539.437 382.763 217.456 328.078 171.355 41.62 104.604 165.307 112.852 28.4904 129.735 156.673 40.4895
internal_count=2975 2033 396 143 942 1637 1439 1021 580 875 457 111 279 441 301 76 346 418 108
is_linear=0
shrinkage=0.01


Tree=7
num_leaves=20
num_cat=0
split_feature=4 5 0 2 1 1 6 0 6 0 5 2 5 2 1 0 4 2 5
split_gain=116.681 141.753 61.8626 41.3251 40.5361 38.8436 38.7131 71.1074 60.5876 29.4986 32.6677 27.3761 26.8279 26.5942 20.6846 19.336 18.4974 16.5854 14.239
threshold=-0.40145849599999994 1.9536338485000002 -0.27359598699999993 -1.4378454209999998 1.5356037885000002 -2.6658078654999993 -0.85210283299999989 0.16634496300000004 1.3024601170000001 -0.40776687799999994 1.5371655400000004 -0.60636658499999985 -2.2201339929999997 -2.4107716684999994 -1.0933849754999998 1.5190662845000003 -1.7635167324999999 -0.94168731049999987 1.1677005820000002
decision_type=2 2 2 2 2 2 2 2 2 2 2 2 2 2 2 2 2 2 2
left_child=4 5 -3 15 9 -2 17 8 14 -1 16 -12 -10 -9 -8 -4 -11 18 -7
right_child=1 2 3 -5 -6 6 7 13 12 10 11 -13 -14 -15 -16 -17 -18 -19 -20
leaf_value=-0.0088239509008747434 0.011107184807888882 -0.011419776237349792 -0.012514586474941851 0.01137514208571315 0.0074932765195498833 0.0058291131159123313 0.0092100644874761918 -0.0023837196203905335 0.0034072420305602791 -0.0093650725801676347 -0.0039086824151271975 0.012365391105965556 -0.0099019448357585815 0.0084065421164394166 4.8585845527002278e-05 0.0045634459841505642 -0.0017917601010806531 0.0094980935140116466 -0.0072791063793849536
leaf_weight=156.72234073281288 74.197202354669571 94.844466656446457 17.992714405059818 25.105108320713043 25.114618867635727 28.865475416183472 36.357677519321442 27.374562442302704 18.372355461120605 59.993767738342285 19.123093456029892 22.496938139200211 86.231394469738007 137.93283724784851 76.494577944278717 10.497650146484373 69.741465449333191 116.18381255865097 11.623998284339903
leaf_count=418 198 253 48 67 67 77 97 73 49 160 51 60 230 368 204 28 186 310 31
internal_value=0 0.00220202 -0.00656693 0.00202085 -0.0047512 0.00432325 0.00339015 0.00167623 -0.00208174 -0.00568853 -0.00282086 0.00488797 -0.00756435 0.0066197 0.00300014 -0.00622196 -0.0052939 0.00757738 0.00206591
internal_weight=0 762.074 148.44 53.5955 353.192 613.634 539.437 382.763 217.456 328.078 171.355 41.62 104.604 165.307 112.852 28.4904 129.735 156.673 40.4895
internal_count=2975 2033 396 143 942 1637 1439 1021 580 875 457 111 279 441 301 76 346 418 108
is_linear=0
shrinkage=0.01


Tree=8
num_leaves=1
num_cat=0
split_feature=
split_gain=
threshold=
decision_type=
left_child=
right_child=
leaf_value=0
leaf_weight=
leaf_count=
internal_value=
internal_weight=
internal_count=
is_linear=0
shrinkage=1


Tree=9
num_leaves=20
num_cat=0
split_feature=4 5 0 2 1 1 6 0 6 0 5 2 5 2 1 0 4 2 5
split_gain=113.624 138.062 60.2542 40.259 39.4722 37.8555 37.7099 69.2493 59.0012 28.7333 31.8066 26.6595 26.1296 25.9057 20.1731 18.8373 18.0175 16.162 13.8643
threshold=-0.40145849599999994 1.9536338485000002 -0.27359598699999993 -1.4378454209999998 1.5356037885000002 -2.6658078654999993 -0.85210283299999989 0.16634496300000004 1.3024601170000001 -0.40776687799999994 1.5371655400000004 -0.60636658499999985 -2.2201339929999997 -2.4107716684999994 -0.95270366599999989 1.5190662845000003 -1.7635167324999999 -0.94168731049999987 1.1677005820000002
decision_type=2 2 2 2 2 2 2 2 2 2 2 2 2 2 2 2 2 2 2
left_child=4 5 -3 15 9 -2 17 8 14 -1 16 -12 -10 -9 -8 -4 -11 18 -7
right_child=1 2 3 -5 -6 6 7 13 12 10 11 -13 -14 -15 -16 -17 -18 -19 -20
leaf_value=0.0087089840886608663 -0.010966855075594209 0.011273473662661159 0.012355929716430143 -0.011232166444703585 -0.0073960502904703461 -0.0057527697209768689 -0.008455407213964105 0.0023519422899752509 -0.0033620772967788569 0.0092427953347484909 0.0038566559622179915 -0.012204231690884845 0.0097736155881170215 -0.0082981314462390963 0.00029309376348184314 -0.0045033131636838817 0.0017678417329427792 -0.0093765199106149964 0.0071826971936165274
leaf_weight=156.67429855465889 74.1449915766716 94.79462406039238 17.98084115982056 25.085801690816879 25.105561584234238 28.858604818582535 41.965021729469299 27.374498099088669 18.370916277170181 59.977054595947266 19.122652292251587 22.490132957696915 86.198978364467621 137.87211614847183 70.870106726884842 10.495997905731199 69.742573976516724 116.12141904234886 11.622959315776823
leaf_count=418 198 253 48 67 67 77 112 73 49 160 51 60 230 368 189 28 186 310 31
internal_value=0 -0.00217357 0.006483 -0.00199513 0.00468892 -0.00426725 -0.00334609 -0.00165437 0.00205447 0.0056139 0.00278362 -0.00482364 0.00746593 -0.00653386 -0.0029606 0.00614195 0.00522395 -0.00747973 -0.00203877
internal_weight=0 761.757 148.357 53.5626 353.112 613.4 539.255 382.652 217.405 328.007 171.332 41.6128 104.57 165.247 112.835 28.4768 129.72 156.603 40.4816
internal_count=2975 2033 396 143 942 1637 1439 1021 580 875 457 111 279 441 301 76 346 418 108
is_linear=0
shrinkage=0.01


Tree=10
num_leaves=20
num_cat=0
split_feature=4 5 0 2 1 1 6 0 6 0 5 2 5 2 1 0 4 2 5
split_gain=113.624 138.062 60.2542 40.259 39.4722 37.8555 37.7099 69.2493 59.0012 28.7333 31.8066 26.6595 26.1296 25.9057 20.1731 18.8373 18.0175 16.162 13.8643
threshold=-0.40145849599999994 1.9536338485000002 -0.27359598699999993 -1.4378454209999998 1.5356037885000002 -2.6658078654999993 -0.85210283299999989 0.16634496300000004 1.3024601170000001 -0.40776687799999994 1.5371655400000004 -0.60636658499999985 -2.2201339929999997 -2.4107716684999994 -0.95270366599999989 1.5190662845000003 -1.7635167324999999 -0.94168731049999987 1.1677005820000002
decision_type=2 2 2 2 2 2 2 2 2 2 2 2 2 2 2 2 2 2 2
left_child=4 5 -3 15 9 -2 17 8 14 -1 16 -12 -10 -9 -8 -4 -11 18 -7
right_child=1 2 3 -5 -6 6 7 13 12 10 11 -13 -14 -15 -16 -17 -18 -19 -20
leaf_value=-0.0087089840886608663 0.010966855075594209 -0.011273473662661159 -0.012355929716430143 0.011232166444703585 0.0073960502904703461 0.0057527697209768689 0.008455407213964105 -0.0023519422899752509 0.0033620772967788569 -0.0092427953347484909 -0.0038566559622179915 0.012204231690884845 -0.0097736155881170215 0.0082981314462390963 -0.00029309376348184314 0.0045033131636838817 -0.0017678417329427792 0.0093765199106149964 -0.0071826971936165274
leaf_weight=156.67429855465889 74.1449915766716 94.79462406039238 17.98084115982056 25.085801690816879 25.105561584234238 28.858604818582535 41.965021729469299 27.374498099088669 18.370916277170181 59.977054595947266 19.122652292251587 22.490132957696915 86.198978364467621 137.87211614847183 70.870106726884842 10.495997905731199 69.742573976516724 116.12141904234886 11.622959315776823
leaf_count=418 198 253 48 67 67 77 112 73 49 160 51 60 230 368 189 28 186 310 31
internal_value=0 0.00217357 -0.006483 0.00199513 -0.00468892 0.00426725 0.00334609 0.00165437 -0.00205447 -0.0056139 -0.00278362 0.00482364 -0.00746593 0.00653386 0.0029606 -0.00614195 -0.00522395 0.00747973 0.00203877
internal_weight=0 761.757 148.357 53.5626 353.112 613.4 539.255 382.652 217.405 328.007 171.332 41.6128 104.57 165.247 112.835 28.4768 129.72 156.603 40.4816
internal_count=2975 2033 396 143 942 1637 1439 1021 580 875 457 111 279 441 301 76 346 418 108
is_linear=0
shrinkage=0.01


Tree=11
num_leaves=1
num_cat=0
split_feature=
split_gain=
threshold=
decision_type=
left_child=
right_child=
leaf_value=0
leaf_weight=
leaf_count=
internal_value=
internal_weight=
internal_count=
is_linear=0
shrinkage=1


Tree=12
num_leaves=20
num_cat=0
split_feature=4 5 0 2 1 1 6 0 6 0 0 4 2 5 3 0 6 6 2
split_gain=110.661 134.678 76.5368 67.2007 39.3113 38.441 38.3001 55.9213 48.7441 29.4152 27.9937 31.0542 22.2251 22.1074 15.7324 15.616 14.5347 14.4933 12.9687
threshold=-0.40145849599999994 1.6649372230000001 -0.78384035499999982 -1.4378454209999998 -2.1038020684999998 1.5356037885000002 -0.85210283299999989 0.16634496300000004 1.5481793835000002 1.5190662845000003 -0.40776687799999994 -1.5523071174999996 -2.4107716684999994 -2.6869946944999996 2.0538735285000005 0.30153820400000003 3.2578310085000006 -0.44615459549999997 1.0478978220000001
decision_type=2 2 2 2 2 2 2 2 2 2 2 2 2 2 2 2 2 2 2
left_child=5 4 18 9 16 10 15 8 14 -4 -1 -12 -9 -10 -8 -6 -2 -13 -3
right_child=1 2 3 -5 6 -7 7 12 13 -11 11 17 -14 -15 -16 -17 -18 -19 -20
leaf_value=0.0085968016351383025 -0.011271748789406028 0.012321593227873906 0.011879642321547515 -0.011078200961018593 -0.0091417468995964452 -0.0073008603412509782 -0.00056725658468882419 0.0026909836869689293 -0.004733047406163004 -0.0050785465511572507 0.0072851935978761996 0.0040925285667667453 -0.0079080699680880093 0.009947930082359599 -0.010425277111226544 0.001152468969731621 0.0017860514107049816 -0.0042269990717566253 -0.00026949534071407742
leaf_weight=156.60299921035767 95.039798736572266 90.985348850488663 32.194133043289185 40.412482261657715 116.80407002568245 25.093862593173981 87.721455425024033 23.62444394826889 11.995120048522947 14.991573542356489 80.195361018180847 32.621034860610962 121.69390255212784 70.793173581361771 19.852616101503372 16.863718688488007 9.3643606901168805 58.475415259599686 8.9884595274925214
leaf_count=418 254 243 86 108 312 67 234 63 32 40 214 87 325 189 53 45 25 156 24
internal_value=0 -0.00214582 0.00521018 -0.00161394 -0.00455065 0.00462803 -0.0033161 -0.00151349 0.00205262 0.00649178 0.00554096 0.00274716 -0.00618498 0.00782082 -0.00238654 -0.00784301 -0.0101006 -0.00124783 0.0111896
internal_weight=0 761.325 187.572 87.5982 573.753 352.989 469.349 335.681 190.362 47.1857 327.895 171.292 145.318 82.7883 107.574 133.668 104.404 91.0965 99.9738
internal_count=2975 2033 501 234 1532 942 1253 896 508 126 875 457 388 221 287 357 279 243 267
is_linear=0
shrinkage=0.01


Tree=13
num_leaves=20
num_cat=0
split_feature=4 5 0 2 1 1 6 0 6 0 0 4 2 5 3 0 6 6 2
split_gain=110.661 134.678 76.5368 67.2007 39.3113 38.441 38.3001 55.9213 48.7441 29.4152 27.9937 31.0542 22.2251 22.1074 15.7324 15.616 14.5347 14.4933 12.9687
threshold=-0.40145849599999994 1.6649372230000001 -0.78384035499999982 -1.4378454209999998 -2.1038020684999998 1.5356037885000002 -0.85210283299999989 0.16634496300000004 1.5481793835000002 1.5190662845000003 -0.40776687799999994 -1.5523071174999996 -2.4107716684999994 -2.6869946944999996 2.0538735285000005 0.30153820400000003 3.2578310085000006 -0.44615459549999997 1.0478978220000001
decision_type=2 2 2 2 2 2 2 2 2 2 2 2 2 2 2 2 2 2 2
left_child=5 4 18 9 16 10 15 8 14 -4 -1 -12 -9 -10 -8 -6 -2 -13 -3
right_child=1 2 3 -5 6 -7 7 12 13 -11 11 17 -14 -15 -16 -17 -18 -19 -20
leaf_value=-0.0085968016351383025 0.011271748789406028 -0.012321593227873906 -0.011879642321547515 0.011078200961018593 0.0091417468995964452 0.0073008603412509782 0.00056725658468882419 -0.0026909836869689293 0.004733047406163004 0.0050785465511572507 -0.0072851935978761996 -0.0040925285667667453 0.0079080699680880093 -0.009947930082359599 0.010425277111226544 -0.001152468969731621 -0.0017860514107049816 0.0042269990717566253 0.00026949534071407742
leaf_weight=156.60299921035767 95.039798736572266 90.985348850488663 32.194133043289185 40.412482261657715 116.80407002568245 25.093862593173981 87.721455425024033 23.62444394826889 11.995120048522947 14.991573542356489 80.195361018180847 32.621034860610962 121.69390255212784 70.793173581361771 19.852616101503372 16.863718688488007 9.3643606901168805 58.475415259599686 8.9884595274925214
leaf_count=418 254 243 86 108 312 67 234 63 32 40 214 87 325 189 53 45 25 156 24
internal_value=0 0.00214582 -0.00521018 0.00161394 0.00455065 -0.00462803 0.0033161 0.00151349 -0.00205262 -0.00649178 -0.00554096 -0.00274716 0.00618498 -0.00782082 0.00238654 0.00784301 0.0101006 0.00124783 -0.0111896
internal_weight=0 761.325 187.572 87.5982 573.753 352.989 469.349 335.681 190.362 47.1857 327.895 171.292 145.318 82.7883 107.574 133.668 104.404 91.0965 99.9738
internal_count=2975 2033 501 234 1532 942 1253 896 508 126 875 457 388 221 287 357 279 243 267
is_linear=0
shrinkage=0.01


Tree=14
num_leaves=1
num_cat=0
split_feature=
split_gain=
threshold=
decision_type=
left_child=
right_child=
leaf_value=0
leaf_weight=
leaf_count=
internal_value=
internal_weight=
internal_count=
is_linear=0
shrinkage=1


Tree=15
num_leaves=20
num_cat=0
split_feature=4 5 0 2 1 1 6 0 6 0 5 2 5 2 0 1 4 2 5
split_gain=107.786 131.229 57.4835 56.5639 37.4397 36.1382 35.806 65.7366 56.1047 27.2822 30.7941 25.8255 24.9612 24.6119 21.1696 19.4543 17.1013 15.5394 13.3144
threshold=-0.40145849599999994 1.9536338485000002 -0.94267637099999979 -1.4378454209999998 1.5356037885000002 -2.6658078654999993 -0.85210283299999989 0.16634496300000004 1.3024601170000001 -0.40776687799999994 1.5371655400000004 -0.60636658499999985 -2.2201339929999997 -2.4107716684999994 1.5190662845000003 -1.0933849754999998 -1.7635167324999999 -0.94168731049999987 1.1677005820000002
decision_type=2 2 2 2 2 2 2 2 2 2 2 2 2 2 2 2 2 2 2
left_child=4 5 -3 14 9 -2 17 8 15 -1 16 -12 -10 -9 -4 -8 -11 18 -7
right_child=1 2 3 -5 -6 6 7 13 12 10 11 -13 -14 -15 -16 -17 -18 -19 -20
leaf_value=0.0084872843288260214 -0.010713435158525318 0.012162911011096718 0.012274379062083262 -0.010462970880038044 -0.0072076299956732402 -0.0055963274767173964 -0.0089161917415452024 0.0022920360006665232 -0.0032999765218793844 0.0090308122626982235 0.0037674809614894312 -0.01204387081286467 0.0095416018298190419 -0.0080901053100607984 -0.0043776219792061657 -2.6421740302811593e-05 0.0017464165145686578 -0.0091531797883950758 0.0070834348654743766
leaf_weight=156.50937882065773 73.994487971067429 78.907145410776138 28.037971287965775 30.650194495916367 25.079631716012955 28.836279779672623 36.299853175878525 27.372479289770126 18.365691542625427 59.921936988830566 19.118257075548172 22.473302274942398 86.090010017156601 137.69686609506607 10.491108775138853 76.48764181137085 69.735310256481171 115.9433611035347 11.617758750915526
leaf_count=418 198 211 75 82 67 77 97 73 49 160 51 60 230 368 28 204 186 310 31
internal_value=0 -0.0021187 0.00632922 -0.000324801 0.0045683 -0.0041605 -0.00326043 -0.00161148 0.00200307 0.00546937 0.00271122 -0.00477592 0.00728376 -0.0063685 0.00774019 -0.00288753 0.00511295 -0.00729126 -0.0019549
internal_weight=0 760.791 148.086 69.1793 352.838 612.704 538.71 382.313 217.243 327.758 171.249 41.5916 104.456 165.069 38.5291 112.787 129.657 156.397 40.454
internal_count=2975 2033 396 185 942 1637 1439 1021 580 875 457 111 279 441 103 301 346 418 108
is_linear=0
shrinkage=0.01


Tree=16
num_leaves=20
num_cat=0
split_feature=4 5 0 2 1 1 6 0 6 0 5 2 5 2 0 1 4 2 5
split_gain=107.786 131.229 57.4835 56.5639 37.4397 36.1382 35.806 65.7366 56.1047 27.2822 30.7941 25.8255 24.9612 24.6119 21.1696 19.4543 17.1013 15.5394 13.3144
threshold=-0.40145849599999994 1.9536338485000002 -0.94267637099999979 -1.4378454209999998 1.5356037885000002 -2.6658078654999993 -0.85210283299999989 0.16634496300000004 1.3024601170000001 -0.40776687799999994 1.5371655400000004 -0.60636658499999985 -2.2201339929999997 -2.4107716684999994 1.5190662845000003 -1.0933849754999998 -1.7635167324999999 -0.94168731049999987 1.1677005820000002
decision_type=2 2 2 2 2 2 2 2 2 2 2 2 2 2 2 2 2 2 2
left_child=4 5 -3 14 9 -2 17 8 15 -1 16 -12 -10 -9 -4 -8 -11 18 -7
right_child=1 2 3 -5 -6 6 7 13 12 10 11 -13 -14 -15 -16 -17 -18 -19 -20
leaf_value=-0.0084872843288260214 0.010713435158525318 -0.012162911011096718 -0.012274379062083262 0.010462970880038044 0.0072076299956732402 0.0055963274767173964 0.0089161917415452024 -0.0022920360006665232 0.0032999765218793844 -0.0090308122626982235 -0.0037674809614894312 0.01204387081286467 -0.0095416018298190419 0.0080901053100607984 0.0043776219792061657 2.6421740302811593e-05 -0.0017464165145686578 0.0091531797883950758 -0.0070834348654743766
leaf_weight=156.50937882065773 73.994487971067429 78.907145410776138 28.037971287965775 30.650194495916367 25.079631716012955 28.836279779672623 36.299853175878525 27.372479289770126 18.365691542625427 59.921936988830566 19.118257075548172 22.473302274942398 86.090010017156601 137.69686609506607 10.491108775138853 76.48764181137085 69.735310256481171 115.9433611035347 11.617758750915526
leaf_count=418 198 211 75 82 67 77 97 73 49 160 51 60 230 368 28 204 186 310 31
internal_value=0 0.0021187 -0.00632922 0.000324801 -0.0045683 0.0041605 0.00326043 0.00161148 -0.00200307 -0.00546937 -0.00271122 0.00477592 -0.00728376 0.0063685 -0.00774019 0.00288753 -0.00511295 0.00729126 0.0019549
internal_weight=0 760.791 148.086 69.1793 352.838 612.704 538.71 382.313 217.243 327.758 171.249 41.5916 104.456 165.069 38.5291 112.787 129.657 156.397 40.454
internal_count=2975 2033 396 185 942 1637 1439 1021 580 875 457 111 279 441 103 301 346 418 108
is_linear=0
shrinkage=0.01


Tree=17
num_leaves=1
num_cat=0
split_feature=
split_gain=
threshold=
decision_type=
left_child=
right_child=
leaf_value=0
leaf_weight=
leaf_count=
internal_value=
internal_weight=
internal_count=
is_linear=0
shrinkage=1


Tree=18
num_leaves=20
num_cat=0
split_feature=4 5 0 2 1 1 6 0 6 0 0 5 2 2 5 4 3 0 6
split_gain=105 128.052 73.0258 63.9063 37.5431 36.4693 36.3907 52.9979 46.4431 28.0735 26.5926 29.99 25.1654 21.1093 21.0885 16.6723 15.1918 15.1271 14.0004
threshold=-0.40145849599999994 1.6649372230000001 -0.78384035499999982 -1.4378454209999998 -2.1038020684999998 1.5356037885000002 -0.85210283299999989 0.16634496300000004 1.5481793835000002 1.5190662845000003 -0.40776687799999994 1.5371655400000004 -0.60636658499999985 -2.4107716684999994 -2.6869946944999996 -1.7635167324999999 2.0538735285000005 0.22447754700000003 3.2578310085000006
decision_type=2 2 2 2 2 2 2 2 2 2 2 2 2 2 2 2 2 2 2
left_child=5 4 -3 9 18 10 17 8 16 -4 -1 15 -13 -9 -10 -12 -8 -6 -2
right_child=1 2 3 -5 6 -7 7 13 14 -11 11 12 -14 -15 -16 -17 -18 -19 -20
leaf_value=0.0083803189998751023 -0.011020244442474328 0.010935959496552466 0.011601154161202167 -0.010823706089344687 -0.0089763973383106318 -0.0071162855363012499 -0.00054666089805887707 0.0026247291433102631 -0.0046277576153810054 -0.0049751222655634699 0.0089169774412307581 0.00371762952649312 -0.011893981822925132 -0.0077063753740062493 0.0097150153558890097 0.0017231248168118676 -0.010239102426363134 0.00088412628719801878 0.001800634504450232
leaf_weight=156.39436987042427 94.810415506362915 99.756032019853592 32.114917755126953 40.323980778455734 115.47871997952461 25.062974780797958 87.70451819896698 23.622791022062302 11.990461349487303 14.983919024467466 59.878034591674805 19.1163070499897 22.453220188617706 121.51286539435387 70.677564561367035 69.735566794872284 19.827020883560181 17.980483382940292 9.3580138981342298
leaf_count=418 254 267 86 108 309 67 234 63 32 40 160 51 60 325 189 186 53 48 25
internal_value=0 -0.00209225 0.0050887 -0.00158347 -0.00443816 0.00450993 -0.00323152 -0.00147384 0.0019989 0.00632761 0.00539945 0.0026761 -0.00471477 -0.00602485 0.00763469 0.00504649 -0.00233379 -0.00764792 -0.00986848
internal_weight=0 760.142 187.179 87.4228 572.963 352.64 468.794 335.335 190.2 47.0988 327.577 171.183 41.5695 145.136 82.668 129.614 107.532 133.459 104.168
internal_count=2975 2033 501 234 1532 942 1253 896 508 126 875 457 111 388 221 346 287 357 279
is_linear=0
shrinkage=0.01


Tree=19
num_leaves=20
num_cat=0
split_feature=4 5 0 2 1 1 6 0 6 0 0 5 2 2 5 4 3 0 6
split_gain=105 128.052 73.0258 63.9063 37.5431 36.4693 36.3907 52.9979 46.4431 28.0735 26.5926 29.99 25.1654 21.1093 21.0885 16.6723 15.1918 15.1271 14.0004
threshold=-0.40145849599999994 1.6649372230000001 -0.78384035499999982 -1.4378454209999998 -2.1038020684999998 1.5356037885000002 -0.85210283299999989 0.16634496300000004 1.5481793835000002 1.5190662845000003 -0.40776687799999994 1.5371655400000004 -0.60636658499999985 -2.4107716684999994 -2.6869946944999996 -1.7635167324999999 2.0538735285000005 0.22447754700000003 3.2578310085000006
decision_type=2 2 2 2 2 2 2 2 2 2 2 2 2 2 2 2 2 2 2
left_child=5 4 -3 9 18 10 17 8 16 -4 -1 15 -13 -9 -10 -12 -8 -6 -2
right_child=1 2 3 -5 6 -7 7 13 14 -11 11 12 -14 -15 -16 -17 -18 -19 -20
leaf_value=-0.0083803189998751023 0.011020244442474328 -0.010935959496552466 -0.011601154161202167 0.010823706089344687 0.0089763973383106318 0.0071162855363012499 0.00054666089805887707 -0.0026247291433102631 0.0046277576153810054 0.0049751222655634699 -0.0089169774412307581 -0.00371762952649312 0.011893981822925132 0.0077063753740062493 -0.0097150153558890097 -0.0017231248168118676 0.010239102426363134 -0.00088412628719801878 -0.001800634504450232
leaf_weight=156.39436987042427 94.810415506362915 99.756032019853592 32.114917755126953 40.323980778455734 115.47871997952461 25.062974780797958 87.70451819896698 23.622791022062302 11.990461349487303 14.983919024467466 59.878034591674805 19.1163070499897 22.453220188617706 121.51286539435387 70.677564561367035 69.735566794872284 19.827020883560181 17.980483382940292 9.3580138981342298
leaf_count=418 254 267 86 108 309 67 234 63 32 40 160 51 60 325 189 186 53 48 25
internal_value=0 0.00209225 -0.0050887 0.00158347 0.00443816 -0.00450993 0.00323152 0.00147384 -0.0019989 -0.00632761 -0.00539945 -0.0026761 0.00471477 0.00602485 -0.00763469 -0.00504649 0.00233379 0.00764792 0.00986848
internal_weight=0 760.142 187.179 87.4228 572.963 352.64 468.794 335.335 190.2 47.0988 327.577 171.183 41.5695 145.136 82.668 129.614 107.532 133.459 104.168
internal_count=2975 2033 501 234 1532 942 1253 896 508 126 875 457 111 388 221 346 287 357 279
is_linear=0
shrinkage=0.01


Tree=20
num_leaves=1
num_cat=0
split_feature=
split_gain=
threshold=
decision_type=
left_child=
right_child=
leaf_value=0
leaf_weight=
leaf_count=
internal_value=
internal_weight=
internal_count=
is_linear=0
shrinkage=1


Tree=21
num_leaves=20
num_cat=0
split_feature=4 5 0 2 1 1 6 0 6 0 5 2 5 2 0 1 4 2 5
split_gain=102.298 124.877 54.7729 53.8393 35.5279 34.5636 34.022 62.426 53.3849 25.9253 29.2097 24.5293 23.8656 23.3985 20.136 18.7814 16.2587 14.9575 12.9351
threshold=-0.40145849599999994 1.9536338485000002 -0.94267637099999979 -1.4378454209999998 1.5356037885000002 -2.6658078654999993 -0.85210283299999989 0.16634496300000004 1.3024601170000001 -0.40776687799999994 1.5371655400000004 -0.60636658499999985 -2.2201339929999997 -2.4107716684999994 1.5190662845000003 -0.95270366599999989 -1.7635167324999999 -0.94168731049999987 -0.80587110799999995
decision_type=2 2 2 2 2 2 2 2 2 2 2 2 2 2 2 2 2 2 2
left_child=4 5 -3 14 9 -2 17 8 15 18 16 -12 -10 -9 -4 -8 -11 -7 -1
right_child=1 2 3 -5 -6 6 7 13 12 10 11 -13 -14 -15 -16 -17 -18 -19 -20
leaf_value=0.0013184637480560476 -0.010477046369891281 0.011890392882337505 0.011995626719193929 -0.010219559145536032 -0.0070267583642138918 -0.001874361859728251 -0.0081278363526379443 0.0022337945271967983 -0.0032394817334448281 0.0088059108676810591 0.0036685353832296924 -0.011749185526330903 0.0093213432743891444 -0.0078912204054072815 -0.0042556437831097792 0.00032024191393119843 0.0017001535230216141 -0.0089410102369697937 0.009465624966626545
leaf_weight=22.820318132638931 73.784848242998123 78.674609810113907 27.947945058345795 30.572489887475967 25.04399362206459 40.415506273508072 41.862519234418869 27.368772059679031 18.358193904161453 59.825162887573242 19.113851815462112 22.427036643028259 85.925495952367783 137.45464715361595 10.484483957290648 70.857883095741272 69.735401809215546 115.69616508483887 133.43853870034218
leaf_count=61 198 211 75 82 67 108 112 73 49 160 51 60 230 368 28 189 186 310 357
internal_value=0 -0.00206637 0.00618684 -0.000315955 0.0044528 -0.00405882 -0.00317849 -0.00157044 0.00195347 0.00533102 0.00264169 -0.00465516 0.00711012 -0.00620997 0.00756223 -0.00281724 0.00498127 -0.00711154 0.0082758
internal_weight=0 759.404 147.68 69.0049 352.404 611.724 537.939 381.828 217.004 327.36 171.101 41.5409 104.284 164.823 38.4324 112.72 129.561 156.112 156.259
internal_count=2975 2033 396 185 942 1637 1439 1021 580 875 457 111 279 441 103 301 346 418 418
is_linear=0
shrinkage=0.01


Tree=22
num_leaves=20
num_cat=0
split_feature=4 5 0 2 1 1 6 0 6 0 5 2 5 2 0 1 4 2 5
split_gain=102.298 124.877 54.7729 53.8393 35.5279 34.5636 34.022 62.426 53.3849 25.9253 29.2097 24.5293 23.8656 23.3985 20.136 18.7814 16.2587 14.9575 12.9351
threshold=-0.40145849599999994 1.9536338485000002 -0.94267637099999979 -1.4378454209999998 1.5356037885000002 -2.6658078654999993 -0.85210283299999989 0.16634496300000004 1.3024601170000001 -0.40776687799999994 1.5371655400000004 -0.60636658499999985 -2.2201339929999997 -2.4107716684999994 1.5190662845000003 -0.95270366599999989 -1.7635167324999999 -0.94168731049999987 -0.80587110799999995
decision_type=2 2 2 2 2 2 2 2 2 2 2 2 2 2 2 2 2 2 2
left_child=4 5 -3 14 9 -2 17 8 15 18 16 -12 -10 -9 -4 -8 -11 -7 -1
right_child=1 2 3 -5 -6 6 7 13 12 10 11 -13 -14 -15 -16 -17 -18 -19 -20
leaf_value=-0.0013184637480560476 0.010477046369891281 -0.011890392882337505 -0.011995626719193929 0.010219559145536032 0.0070267583642138918 0.001874361859728251 0.0081278363526379443 -0.0022337945271967983 0.0032394817334448281 -0.0088059108676810591 -0.0036685353832296924 0.011749185526330903 -0.0093213432743891444 0.0078912204054072815 0.0042556437831097792 -0.00032024191393119843 -0.0017001535230216141 0.0089410102369697937 -0.009465624966626545
leaf_weight=22.820318132638931 73.784848242998123 78.674609810113907 27.947945058345795 30.572489887475967 25.04399362206459 40.415506273508072 41.862519234418869 27.368772059679031 18.358193904161453 59.825162887573242 19.113851815462112 22.427036643028259 85.925495952367783 137.45464715361595 10.484483957290648 70.857883095741272 69.735401809215546 115.69616508483887 133.43853870034218
leaf_count=61 198 211 75 82 67 108 112 73 49 160 51 60 230 368 28 189 186 310 357
internal_value=0 0.00206637 -0.00618684 0.000315955 -0.0044528 0.00405882 0.00317849 0.00157044 -0.00195347 -0.00533102 -0.00264169 0.00465516 -0.00711012 0.00620997 -0.00756223 0.00281724 -0.00498127 0.00711154 -0.0082758
internal_weight=0 759.404 147.68 69.0049 352.404 611.724 537.939 381.828 217.004 327.36 171.101 41.5409 104.284 164.823 38.4324 112.72 129.561 156.112 156.259
internal_count=2975 2033 396 185 942 1637 1439 1021 580 875 457 111 279 441 103 301 346 418 418
is_linear=0
shrinkage=0.01


Tree=23
num_leaves=1
num_cat=0
split_feature=
split_gain=
threshold=
decision_type=
left_child=
right_child=
leaf_value=0
leaf_weight=
leaf_count=
internal_value=
internal_weight=
internal_count=
is_linear=0
shrinkage=1


Tree=24
num_leaves=20
num_cat=0
split_feature=4 5 0 2 1 6 0 6 1 0 0 5 2 5 2 4 3 0 6
split_gain=99.6779 121.943 69.718 60.8685 35.891 34.6433 50.2461 44.2764 34.6147 26.7998 25.2809 28.4523 23.916 20.1317 20.0611 15.8597 14.6785 14.6536 13.5044
threshold=-0.40145849599999994 1.6649372230000001 -0.78384035499999982 -1.4378454209999998 -2.1038020684999998 -0.85210283299999989 0.16634496300000004 1.5481793835000002 1.5356037885000002 1.5190662845000003 -0.40776687799999994 1.5371655400000004 -0.60636658499999985 -2.6869946944999996 -2.4107716684999994 -1.7635167324999999 2.0538735285000005 0.30153820400000003 3.2578310085000006
decision_type=2 2 2 2 2 2 2 2 2 2 2 2 2 2 2 2 2 2 2
left_child=8 4 -3 9 18 17 7 16 10 -4 -1 15 -13 -9 -8 -12 -7 -6 -2
right_child=1 2 3 -5 5 6 14 13 -10 -11 11 12 -14 -15 -16 -17 -18 -19 -20
leaf_value=0.008173836146871569 -0.010783822845756671 0.010699600101845041 0.01134515781545813 -0.010582899716418325 -0.0087275176609563614 -0.00052665807460438425 0.0025602490278836001 -0.0045251735539156472 -0.0069389838317486545 -0.0048629903114582292 0.0086974936429631174 0.0036201819184404857 -0.01160922082849079 0.0094938148256945108 -0.0075131837625087355 0.0016774990576165828 -0.010060864421841221 0.0012497154798039264 0.0018144728695378928
leaf_weight=156.09981626272202 94.507472008466721 99.459684550762177 32.006162345409393 40.203335076570511 116.34426116943359 87.684049606323242 23.620049715042114 11.984401702880858 25.02278408408165 14.974358946084974 59.763693809509277 19.110912889242172 22.395001798868179 70.516173988580704 121.27701541781425 69.734834969043732 19.79281297326088 16.852828800678253 9.3502529263496381
leaf_count=418 254 267 86 108 312 234 63 32 67 40 160 51 60 189 325 186 53 45 25
internal_value=0 -0.00204106 0.00497743 -0.00155044 -0.00433148 -0.00315147 -0.0014357 0.0019472 0.00439691 0.00617905 0.00526409 0.00260795 -0.00459702 0.00745735 -0.00587109 0.00491723 -0.00228247 -0.00746514 -0.00964961
internal_weight=0 758.573 186.644 87.1839 571.929 468.072 334.875 189.977 352.127 46.9805 327.104 171.004 41.5059 82.5006 144.897 129.499 107.477 133.197 103.858
internal_count=2975 2033 501 234 1532 1253 896 508 942 126 875 457 111 221 388 346 287 357 279
is_linear=0
shrinkage=0.01


Tree=25
num_leaves=20
num_cat=0
split_feature=4 5 0 2 1 6 0 6 1 0 0 5 2 5 2 4 3 0 6
split_gain=99.6779 121.943 69.718 60.8685 35.891 34.6433 50.2461 44.2764 34.6147 26.7998 25.2809 28.4523 23.916 20.1317 20.0611 15.8597 14.6785 14.6536 13.5044
threshold=-0.40145849599999994 1.6649372230000001 -0.78384035499999982 -1.4378454209999998 -2.1038020684999998 -0.85210283299999989 0.16634496300000004 1.5481793835000002 1.5356037885000002 1.5190662845000003 -0.40776687799999994 1.5371655400000004 -0.60636658499999985 -2.6869946944999996 -2.4107716684999994 -1.7635167324999999 2.0538735285000005 0.30153820400000003 3.2578310085000006
decision_type=2 2 2 2 2 2 2 2 2 2 2 2 2 2 2 2 2 2 2
left_child=8 4 -3 9 18 17 7 16 10 -4 -1 15 -13 -9 -8 -12 -7 -6 -2
right_child=1 2 3 -5 5 6 14 13 -10 -11 11 12 -14 -15 -16 -17 -18 -19 -20
leaf_value=-0.008173836146871569 0.010783822845756671 -0.010699600101845041 -0.01134515781545813 0.010582899716418325 0.0087275176609563614 0.00052665807460438425 -0.0025602490278836001 0.0045251735539156472 0.0069389838317486545 0.0048629903114582292 -0.0086974936429631174 -0.0036201819184404857 0.01160922082849079 -0.0094938148256945108 0.0075131837625087355 -0.0016774990576165828 0.010060864421841221 -0.0012497154798039264 -0.0018144728695378928
leaf_weight=156.09981626272202 94.507472008466721 99.459684550762177 32.006162345409393 40.203335076570511 116.34426116943359 87.684049606323242 23.620049715042114 11.984401702880858 25.02278408408165 14.974358946084974 59.763693809509277 19.110912889242172 22.395001798868179 70.516173988580704 121.27701541781425 69.734834969043732 19.79281297326088 16.852828800678253 9.3502529263496381
leaf_count=418 254 267 86 108 312 234 63 32 67 40 160 51 60 189 325 186 53 45 25
internal_value=0 0.00204106 -0.00497743 0.00155044 0.00433148 0.00315147 0.0014357 -0.0019472 -0.00439691 -0.00617905 -0.00526409 -0.00260795 0.00459702 -0.00745735 0.00587109 -0.00491723 0.00228247 0.00746514 0.00964961
internal_weight=0 758.573 186.644 87.1839 571.929 468.072 334.875 189.977 352.127 46.9805 327.104 171.004 41.5059 82.5006 144.897 129.499 107.477 133.197 103.858
internal_count=2975 2033 501 234 1532 1253 896 508 942 126 875 457 111 221 388 346 287 357 279
is_linear=0
shrinkage=0.01


Tree=26
num_leaves=1
num_cat=0
split_feature=
split_gain=
threshold=
decision_type=
left_child=
right_child=
leaf_value=0
leaf_weight=
leaf_count=
internal_value=
internal_weight=
internal_count=
is_linear=0
shrinkage=1


Tree=27
num_leaves=20
num_cat=0
split_feature=4 5 0 2 1 3 3 6 0 1 2 0 5 6 2 0 5 0 6
split_gain=97.1348 118.905 52.2448 51.2864 33.7281 33.2144 31.4609 31.5477 53.8186 29.0695 27.2555 24.6552 27.7169 23.7341 23.3243 22.6674 20.4984 19.1754 19.0962
threshold=-0.40145849599999994 1.9536338485000002 -0.94267637099999979 -1.4378454209999998 1.5356037885000002 2.5114869955000008 -1.1008548254999997 2.9434699165000002 0.35983957650000004 -2.6000735249999996 -0.92452301099999989 -0.40776687799999994 1.5371655400000004 -0.88735800649999985 -0.60636658499999985 0.37836469600000006 0.75598504350000006 1.5190662845000003 0.79954104850000007
decision_type=2 2 2 2 2 2 2 2 2 2 2 2 2 2 2 2 2 2 2
left_child=4 5 -3 17 11 6 -2 9 -9 -8 16 -1 -13 -12 -14 18 -11 -4 -15
right_child=1 2 3 -5 -6 -7 7 8 -10 10 13 12 14 15 -16 -17 -18 -19 -20
leaf_value=0.0080739093590901853 -0.010609002395089259 0.011635189874234526 0.011735214541894405 -0.0099895013232560951 -0.0068528980237500241 -0.010795205160587353 -0.010682794441032571 0.010446451803518419 -0.00907452448529583 -0.0018173363163569978 -0.0083613503461907445 0.0048543494124591233 0.0035725534789881842 -0.0036862182497002533 -0.011473842613653038 -0.0088330616010473244 0.0062822953579198442 -0.0041373509651485545 0.004377939181888375
leaf_weight=155.92584800720215 51.43630662560463 78.367397904396057 27.829832881689072 30.471549063920975 24.999446004629135 63.69804584980011 48.254787802696228 43.640687108039856 20.880465865135193 84.056082457304001 94.169450372457504 129.42786818742752 19.107507795095444 61.729267954826355 22.357360750436783 36.892379313707352 49.732460737228394 10.476266145706175 56.008548617362976
leaf_count=418 138 211 75 82 67 171 130 117 56 225 253 346 51 165 60 99 133 28 150
internal_value=0 -0.00201634 0.006053 -0.00030752 0.00434213 -0.00396124 -0.00316514 -0.0023922 0.00412903 -0.0033688 -0.0024463 0.00519847 0.00257487 -0.00440355 -0.00454028 -0.00199326 0.00119349 0.00739426 0.000149947
internal_weight=0 757.644 147.145 68.7776 351.818 610.498 546.8 495.364 64.5212 430.843 382.588 326.819 170.893 248.8 41.4649 154.63 133.789 38.3061 117.738
internal_count=2975 2033 396 185 942 1637 1466 1328 173 1155 1025 875 457 667 111 414 358 103 315
is_linear=0
shrinkage=0.01


Tree=28
num_leaves=20
num_cat=0
split_feature=4 5 0 2 1 3 3 6 0 1 2 0 5 6 2 0 5 0 6
split_gain=97.1348 118.905 52.2448 51.2864 33.7281 33.2144 31.4609 31.5477 53.8186 29.0695 27.2555 24.6552 27.7169 23.7341 23.3243 22.6674 20.4984 19.1754 19.0962
threshold=-0.40145849599999994 1.9536338485000002 -0.94267637099999979 -1.4378454209999998 1.5356037885000002 2.5114869955000008 -1.1008548254999997 2.9434699165000002 0.35983957650000004 -2.6000735249999996 -0.92452301099999989 -0.40776687799999994 1.5371655400000004 -0.88735800649999985 -0.60636658499999985 0.37836469600000006 0.75598504350000006 1.5190662845000003 0.79954104850000007
decision_type=2 2 2 2 2 2 2 2 2 2 2 2 2 2 2 2 2 2 2
left_child=4 5 -3 17 11 6 -2 9 -9 -8 16 -1 -13 -12 -14 18 -11 -4 -15
right_child=1 2 3 -5 -6 -7 7 8 -10 10 13 12 14 15 -16 -17 -18 -19 -20
leaf_value=-0.0080739093590901853 0.010609002395089259 -0.011635189874234526 -0.011735214541894405 0.0099895013232560951 0.0068528980237500241 0.010795205160587353 0.010682794441032571 -0.010446451803518419 0.00907452448529583 0.0018173363163569978 0.0083613503461907445 -0.0048543494124591233 -0.0035725534789881842 0.0036862182497002533 0.011473842613653038 0.0088330616010473244 -0.0062822953579198442 0.0041373509651485545 -0.004377939181888375
leaf_weight=155.92584800720215 51.43630662560463 78.367397904396057 27.829832881689072 30.471549063920975 24.999446004629135 63.69804584980011 48.254787802696228 43.640687108039856 20.880465865135193 84.056082457304001 94.169450372457504 129.42786818742752 19.107507795095444 61.729267954826355 22.357360750436783 36.892379313707352 49.732460737228394 10.476266145706175 56.008548617362976
leaf_count=418 138 211 75 82 67 171 130 117 56 225 253 346 51 165 60 99 133 28 150
internal_value=0 0.00201634 -0.006053 0.00030752 -0.00434213 0.00396124 0.00316514 0.0023922 -0.00412903 0.0033688 0.0024463 -0.00519847 -0.00257487 0.00440355 0.00454028 0.00199326 -0.00119349 -0.00739426 -0.000149947
internal_weight=0 757.644 147.145 68.7776 351.818 610.498 546.8 495.364 64.5212 430.843 382.588 326.819 170.893 248.8 41.4649 154.63 133.789 38.3061 117.738
internal_count=2975 2033 396 185 942 1637 1466 1328 173 1155 1025 875 457 667 111 414 358 103 315
is_linear=0
shrinkage=0.01


Tree=29
num_leaves=1
num_cat=0
split_feature=
split_gain=
threshold=
decision_type=
left_child=
right_child=
leaf_value=0
leaf_weight=
leaf_count=
internal_value=
internal_weight=
internal_count=
is_linear=0
shrinkage=1


Tree=30
num_leaves=20
num_cat=0
split_feature=4 0 5 6 2 4 2 0 1 5 3 0 5 2 3 3 3 5 6
split_gain=94.9266 100.631 114.845 116.175 64.0119 43.176 38.0812 33.5375 30.8809 26.5764 20.683 20.2769 20.2585 18.8189 17.5704 13.2228 12.7277 11.8685 12.716
threshold=-1.5523071174999996 -0.87409635349999981 1.3056089830000002 1.6548514790000002 -1.6915456109999998 0.35622240400000005 1.9955654000000003 1.1405512290000004 0.52308455700000012 -0.34010464299999993 -0.16907882249999998 0.86176961800000018 -1.3797717829999998 0.54073123400000012 2.5114869955000008 2.0704628635000004 -1.0377509434999999 -0.75049074749999989 2.8275711755000006
decision_type=2 2 2 2 2 2 2 2 2 2 2 2 2 2 2 2 2 2 2
left_child=8 2 3 5 7 10 -4 9 -1 -3 -2 13 -12 14 16 -9 -6 18 -18
right_child=1 4 6 -5 11 -7 -8 15 -10 -11 12 -13 -14 -15 -16 -17 17 -19 -20
leaf_value=0.009131615435176408 -0.0083689804963509237 -0.0084632681034002549 0.010358305706620921 0.010480079451965283 -0.012639869726725985 -0.0088057938276797278 -0.0090728427299810351 -0.00096567634460876996 -0.0030687242147930437 0.0081437715681260663 -0.0080347121170334344 -0.0092091593114339062 0.0085849909921615307 -0.0082464470181086921 -0.010634269351597794 -0.010208637524888054 -0.0063097483389599734 0.0025252350933349867 0.0079602258956818182
leaf_weight=132.00400644540787 15.642731100320814 11.202771335840223 152.0072163939476 59.227471649646759 8.5709389150142652 129.58232507109642 10.802637904882429 63.152564406394958 24.615266680717468 68.916189551353455 9.3279821276664716 145.8810943365097 34.316378384828568 83.346305847167969 21.611575067043304 20.502299815416336 38.406077325344086 71.651403188705444 7.4570978581905356
leaf_count=354 42 30 409 159 23 348 29 169 66 185 25 392 92 224 58 55 103 192 20
internal_value=0 -0.00118737 0.00254292 -0.00173973 -0.00402222 -0.00557174 0.00906902 0.00119763 0.00721413 0.00582166 0.00149686 -0.00629025 0.00503291 -0.00444724 -0.00230333 -0.00323096 -0.000875369 -1.73243e-05 -0.00398953
internal_weight=0 951.605 410.907 248.097 540.698 188.869 162.81 163.774 156.619 80.119 59.2871 376.924 43.6444 231.043 147.697 83.6549 126.086 117.515 45.8632
internal_count=2975 2555 1104 666 1451 507 438 439 420 215 159 1012 117 620 396 224 338 315 123
is_linear=0
shrinkage=0.01


Tree=31
num_leaves=20
num_cat=0
split_feature=4 0 5 6 2 4 2 0 1 5 3 0 5 2 3 3 3 5 6
split_gain=94.9266 100.631 114.845 116.175 64.0119 43.176 38.0812 33.5375 30.8809 26.5764 20.683 20.2769 20.2585 18.8189 17.5704 13.2228 12.7277 11.8685 12.716
threshold=-1.5523071174999996 -0.87409635349999981 1.3056089830000002 1.6548514790000002 -1.6915456109999998 0.35622240400000005 1.9955654000000003 1.1405512290000004 0.52308455700000012 -0.34010464299999993 -0.16907882249999998 0.86176961800000018 -1.3797717829999998 0.54073123400000012 2.5114869955000008 2.0704628635000004 -1.0377509434999999 -0.75049074749999989 2.8275711755000006
decision_type=2 2 2 2 2 2 2 2 2 2 2 2 2 2 2 2 2 2 2
left_child=8 2 3 5 7 10 -4 9 -1 -3 -2 13 -12 14 16 -9 -6 18 -18
right_child=1 4 6 -5 11 -7 -8 15 -10 -11 12 -13 -14 -15 -16 -17 17 -19 -20
leaf_value=-0.009131615435176408 0.0083689804963509237 0.0084632681034002549 -0.010358305706620921 -0.010480079451965283 0.012639869726725985 0.0088057938276797278 0.0090728427299810351 0.00096567634460876996 0.0030687242147930437 -0.0081437715681260663 0.0080347121170334344 0.0092091593114339062 -0.0085849909921615307 0.0082464470181086921 0.010634269351597794 0.010208637524888054 0.0063097483389599734 -0.0025252350933349867 -0.0079602258956818182
leaf_weight=132.00400644540787 15.642731100320814 11.202771335840223 152.0072163939476 59.227471649646759 8.5709389150142652 129.58232507109642 10.802637904882429 63.152564406394958 24.615266680717468 68.916189551353455 9.3279821276664716 145.8810943365097 34.316378384828568 83.346305847167969 21.611575067043304 20.502299815416336 38.406077325344086 71.651403188705444 7.4570978581905356
leaf_count=354 42 30 409 159 23 348 29 169 66 185 25 392 92 224 58 55 103 192 20
internal_value=0 0.00118737 -0.00254292 0.00173973 0.00402222 0.00557174 -0.00906902 -0.00119763 -0.00721413 -0.00582166 -0.00149686 0.00629025 -0.00503291 0.00444724 0.00230333 0.00323096 0.000875369 1.73243e-05 0.00398953
internal_weight=0 951.605 410.907 248.097 540.698 188.869 162.81 163.774 156.619 80.119 59.2871 376.924 43.6444 231.043 147.697 83.6549 126.086 117.515 45.8632
internal_count=2975 2555 1104 666 1451 507 438 439 420 215 159 1012 117 620 396 224 338 315 123
is_linear=0
shrinkage=0.01


Tree=32
num_leaves=1
num_cat=0
split_feature=
split_gain=
threshold=
decision_type=
left_child=
right_child=
leaf_value=0
leaf_weight=
leaf_count=
internal_value=
internal_weight=
internal_count=
is_linear=0
shrinkage=1


Tree=33
num_leaves=20
num_cat=0
split_feature=4 5 0 2 1 1 6 0 6 0 5 5 2 2 0 1 4 2 5
split_gain=92.7242 113.498 49.9422 49.2319 32.4394 32.067 31.2392 56.7714 48.6233 23.5301 26.7539 22.4409 22.3969 21.599 18.4508 17.9112 14.9293 13.7084 12.4836
threshold=-0.40145849599999994 1.9536338485000002 -0.94267637099999979 -1.4378454209999998 1.5356037885000002 -2.6658078654999993 -0.85210283299999989 0.16634496300000004 1.3024601170000001 -0.40776687799999994 1.5371655400000004 -2.5057524694999995 -0.60636658499999985 -2.4107716684999994 1.5190662845000003 -1.0933849754999998 -1.7635167324999999 -0.94168731049999987 -0.80587110799999995
decision_type=2 2 2 2 2 2 2 2 2 2 2 2 2 2 2 2 2 2 2
left_child=4 5 -3 14 9 -2 17 8 15 18 16 -10 -12 -9 -4 -8 -11 -7 -1
right_child=1 2 3 -5 -6 6 7 13 11 10 12 -13 -14 -15 -16 -17 -18 -19 -20
leaf_value=0.0010577657600432996 -0.010079165337802017 0.011401074588974321 0.011532120330756665 -0.0098007973880930004 -0.0067410729753566113 -0.001788282181984735 -0.0084759202629040263 0.0021943735580447093 -0.0046782657269044594 0.0084384274592490018 0.0034720614763602297 0.0086955433971082005 -0.011284811837502922 -0.007538560239314907 -0.0040506350449957401 6.9958883286341689e-05 0.0016213544892710449 -0.0085622544484375666 0.0090724475349122299
leaf_weight=22.765970289707184 73.255245208740234 77.999351918697357 27.712186276912689 30.369565665721893 24.96401235461235 40.352309942245483 36.111872017383575 27.359772920608521 14.598706185817717 59.574809074401855 19.096946358680725 89.262479722499847 22.288670420646667 136.8279196023941 10.468980640172957 76.436193943023682 69.721366435289383 115.05322408676147 132.79191818833351
leaf_count=61 198 211 75 82 67 108 97 73 39 160 51 240 60 368 28 204 186 310 357
internal_value=0 -0.00197288 0.00592838 -0.000298636 0.00424565 -0.00387344 -0.0030253 -0.00148265 0.00188141 0.00508636 0.00252249 0.00681572 -0.00447541 -0.00591669 0.00725945 -0.00267205 0.00476241 -0.00680334 0.0078995
internal_weight=0 755.808 146.55 68.5507 351.204 609.258 536.002 380.597 216.409 326.24 170.682 103.861 41.3856 164.188 38.1812 112.548 129.296 155.406 155.558
internal_count=2975 2033 396 185 942 1637 1439 1021 580 875 457 279 111 441 103 301 346 418 418
is_linear=0
shrinkage=0.01


Tree=34
num_leaves=20
num_cat=0
split_feature=4 5 0 2 1 1 6 0 6 0 5 5 2 2 0 1 4 2 5
split_gain=92.7242 113.498 49.9422 49.2319 32.4394 32.067 31.2392 56.7714 48.6233 23.5301 26.7539 22.4409 22.3969 21.599 18.4508 17.9112 14.9293 13.7084 12.4836
threshold=-0.40145849599999994 1.9536338485000002 -0.94267637099999979 -1.4378454209999998 1.5356037885000002 -2.6658078654999993 -0.85210283299999989 0.16634496300000004 1.3024601170000001 -0.40776687799999994 1.5371655400000004 -2.5057524694999995 -0.60636658499999985 -2.4107716684999994 1.5190662845000003 -1.0933849754999998 -1.7635167324999999 -0.94168731049999987 -0.80587110799999995
decision_type=2 2 2 2 2 2 2 2 2 2 2 2 2 2 2 2 2 2 2
left_child=4 5 -3 14 9 -2 17 8 15 18 16 -10 -12 -9 -4 -8 -11 -7 -1
right_child=1 2 3 -5 -6 6 7 13 11 10 12 -13 -14 -15 -16 -17 -18 -19 -20
leaf_value=-0.0010577657600432996 0.010079165337802017 -0.011401074588974321 -0.011532120330756665 0.0098007973880930004 0.0067410729753566113 0.001788282181984735 0.0084759202629040263 -0.0021943735580447093 0.0046782657269044594 -0.0084384274592490018 -0.0034720614763602297 -0.0086955433971082005 0.011284811837502922 0.007538560239314907 0.0040506350449957401 -6.9958883286341689e-05 -0.0016213544892710449 0.0085622544484375666 -0.0090724475349122299
leaf_weight=22.765970289707184 73.255245208740234 77.999351918697357 27.712186276912689 30.369565665721893 24.96401235461235 40.352309942245483 36.111872017383575 27.359772920608521 14.598706185817717 59.574809074401855 19.096946358680725 89.262479722499847 22.288670420646667 136.8279196023941 10.468980640172957 76.436193943023682 69.721366435289383 115.05322408676147 132.79191818833351
leaf_count=61 198 211 75 82 67 108 97 73 39 160 51 240 60 368 28 204 186 310 357
internal_value=0 0.00197288 -0.00592838 0.000298636 -0.00424565 0.00387344 0.0030253 0.00148265 -0.00188141 -0.00508636 -0.00252249 -0.00681572 0.00447541 0.00591669 -0.00725945 0.00267205 -0.00476241 0.00680334 -0.0078995
internal_weight=0 755.808 146.55 68.5507 351.204 609.258 536.002 380.597 216.409 326.24 170.682 103.861 41.3856 164.188 38.1812 112.548 129.296 155.406 155.558
internal_count=2975 2033 396 185 942 1637 1439 1021 580 875 457 279 111 441 103 301 346 418 418
is_linear=0
shrinkage=0.01


Tree=35
num_leaves=1
num_cat=0
split_feature=
split_gain=
threshold=
decision_type=
left_child=
right_child=
leaf_value=0
leaf_weight=
leaf_count=
internal_value=
internal_weight=
internal_count=
is_linear=0
shrinkage=1


Tree=36
num_leaves=20
num_cat=0
split_feature=4 0 5 6 2 4 2 0 1 5 3 5 0 2 3 3 3 5 6
split_gain=90.5165 96.0649 109.738 111.387 61.2495 41.5002 36.8854 32.0586 29.7892 25.6461 19.9783 19.6289 19.4579 18.1078 17.0117 12.8311 12.3652 11.4424 12.3015
threshold=-1.5523071174999996 -0.87409635349999981 1.3056089830000002 1.6548514790000002 -1.6915456109999998 0.35622240400000005 1.9955654000000003 1.1405512290000004 0.52308455700000012 -0.34010464299999993 -0.16907882249999998 -1.3797717829999998 0.86176961800000018 0.54073123400000012 2.5114869955000008 2.0704628635000004 -1.0377509434999999 -0.75049074749999989 2.8275711755000006
decision_type=2 2 2 2 2 2 2 2 2 2 2 2 2 2 2 2 2 2 2
left_child=8 2 3 5 7 10 -4 9 -1 -3 -2 -12 13 14 16 -9 -6 18 -18
right_child=1 4 6 -5 12 -7 -8 15 -10 -11 11 -13 -14 -15 -16 -17 17 -19 -20
leaf_value=0.0089405221364169569 -0.0082297489163569992 -0.0083380050301187746 0.010155097483808202 0.010284263730467671 -0.012452852771676045 -0.0086323321252093094 -0.0089815611788588764 -0.00092394938914881211 -0.0030495102764403373 0.0079877297372258557 -0.0079115663029269354 0.0084541206810539466 -0.0090194145488475333 -0.0080810864438464001 -0.010454160400833386 -0.010037994641807586 -0.0061825212603412085 0.0025030727268563493 0.0078624025760521774
leaf_weight=131.64223620295525 15.610168963670729 11.187823891639708 151.42723426222801 59.047071993350983 8.5460465252399427 129.22892755270004 10.789830297231672 63.106996268033981 24.592323780059814 68.761938333511353 9.3224487006664258 34.268322914838791 145.42601338028908 83.11855074763298 21.552481651306152 20.453425884246826 38.339686930179596 71.588137447834015 7.4475790858268729
leaf_count=354 42 30 409 159 23 348 29 169 66 185 25 92 392 224 58 55 103 192 20
internal_value=0 -0.00116093 0.00248977 -0.00170038 -0.0039331 -0.00545594 0.00888223 0.00117637 0.00705321 0.00570318 0.00147777 0.00495411 -0.00615494 -0.00434842 -0.00224464 -0.00315483 -0.000839511 6.0511e-06 -0.00389803
internal_weight=0 949.223 409.694 247.477 539.529 188.43 162.217 163.51 156.235 79.9498 59.2009 43.5908 376.018 230.592 147.474 83.5604 125.921 117.375 45.7873
internal_count=2975 2555 1104 666 1451 507 438 439 420 215 159 117 1012 620 396 224 338 315 123
is_linear=0
shrinkage=0.01


Tree=37
num_leaves=20
num_cat=0
split_feature=4 0 5 6 2 4 2 0 1 5 3 5 0 2 3 3 3 5 6
split_gain=90.5165 96.0649 109.738 111.387 61.2495 41.5002 36.8854 32.0586 29.7892 25.6461 19.9783 19.6289 19.4579 18.1078 17.0117 12.8311 12.3652 11.4424 12.3015
threshold=-1.5523071174999996 -0.87409635349999981 1.3056089830000002 1.6548514790000002 -1.6915456109999998 0.35622240400000005 1.9955654000000003 1.1405512290000004 0.52308455700000012 -0.34010464299999993 -0.16907882249999998 -1.3797717829999998 0.86176961800000018 0.54073123400000012 2.5114869955000008 2.0704628635000004 -1.0377509434999999 -0.75049074749999989 2.8275711755000006
decision_type=2 2 2 2 2 2 2 2 2 2 2 2 2 2 2 2 2 2 2
left_child=8 2 3 5 7 10 -4 9 -1 -3 -2 -12 13 14 16 -9 -6 18 -18
right_child=1 4 6 -5 12 -7 -8 15 -10 -11 11 -13 -14 -15 -16 -17 17 -19 -20
leaf_value=-0.0089405221364169569 0.0082297489163569992 0.0083380050301187746 -0.010155097483808202 -0.010284263730467671 0.012452852771676045 0.0086323321252093094 0.0089815611788588764 0.00092394938914881211 0.0030495102764403373 -0.0079877297372258557 0.0079115663029269354 -0.0084541206810539466 0.0090194145488475333 0.0080810864438464001 0.010454160400833386 0.010037994641807586 0.0061825212603412085 -0.0025030727268563493 -0.0078624025760521774
leaf_weight=131.64223620295525 15.610168963670729 11.187823891639708 151.42723426222801 59.047071993350983 8.5460465252399427 129.22892755270004 10.789830297231672 63.106996268033981 24.592323780059814 68.761938333511353 9.3224487006664258 34.268322914838791 145.42601338028908 83.11855074763298 21.552481651306152 20.453425884246826 38.339686930179596 71.588137447834015 7.4475790858268729
leaf_count=354 42 30 409 159 23 348 29 169 66 185 25 92 392 224 58 55 103 192 20
internal_value=0 0.00116093 -0.00248977 0.00170038 0.0039331 0.00545594 -0.00888223 -0.00117637 -0.00705321 -0.00570318 -0.00147777 -0.00495411 0.00615494 0.00434842 0.00224464 0.00315483 0.000839511 -6.0511e-06 0.00389803
internal_weight=0 949.223 409.694 247.477 539.529 188.43 162.217 163.51 156.235 79.9498 59.2009 43.5908 376.018 230.592 147.474 83.5604 125.921 117.375 45.7873
internal_count=2975 2555 1104 666 1451 507 438 439 420 215 159 117 1012 620 396 224 338 315 123
is_linear=0
shrinkage=0.01


Tree=38
num_leaves=1
num_cat=0
split_feature=
split_gain=
threshold=
decision_type=
left_child=
right_child=
leaf_value=0
leaf_weight=
leaf_count=
internal_value=
internal_weight=
internal_count=
is_linear=0
shrinkage=1


Tree=39
num_leaves=20
num_cat=0
split_feature=4 5 0 2 1 6 0 6 1 0 0 4 5 2 0 3 1 5 2
split_gain=88.5586 108.448 62.5698 54.7891 33.0214 31.4775 44.6505 39.3534 31.2143 24.3984 22.5294 29.3211 18.6119 18.2344 13.9383 13.7331 13.5604 13.4044 21.3455
threshold=-0.40145849599999994 1.6649372230000001 -0.78384035499999982 -1.4378454209999998 -2.1038020684999998 -0.85210283299999989 0.16634496300000004 1.5481793835000002 1.5356037885000002 1.5190662845000003 -0.90679410949999995 -1.5523071174999996 -2.6869946944999996 -2.4107716684999994 0.30153820400000003 2.0538735285000005 -0.73646545299999999 1.6246025570000002 -0.60636658499999985
decision_type=2 2 2 2 2 2 2 2 2 2 2 2 2 2 2 2 2 2 2
left_child=8 4 -3 9 -2 14 7 15 10 -4 -1 16 -9 -8 -6 -7 -12 -13 -19
right_child=1 2 3 -5 5 6 13 12 -10 -11 11 17 -14 -15 -16 -17 -18 18 -20
leaf_value=0.0084602187238930742 -0.0092205540276978706 0.010174705309510999 0.01084153439547678 -0.010097893919822269 -0.0083251699010706559 -0.00042082625347131269 0.0025182027492555398 -0.0044367527558633558 -0.0066326136757161305 -0.0046583209759110261 0.0098255019614573776 0.0018662524112864343 0.0090552353519262972 -0.0070916947864466907 0.0014173122676093173 -0.0096653903831439014 0.0019297208068113358 0.00410039345413684 -0.011831584435603046
leaf_weight=118.33109697699547 102.91822707653046 98.41892945766449 31.679729789495468 39.830586552619934 115.55949586629868 87.602329552173615 23.613520801067352 11.972479015588759 24.922880262136459 14.947298139333723 62.045764714479446 76.351438403129578 70.02670606970787 120.51696312427521 16.822596281766891 19.679002523422241 33.49247270822525 13.830775707960127 21.453942507505417
leaf_count=319 279 267 86 108 312 234 63 32 67 40 167 204 189 325 45 53 90 37 58
internal_value=0 -0.00193137 0.0047221 -0.00148486 -0.00409427 -0.00296161 -0.00132355 0.00186981 0.0041533 0.00587272 0.00497914 0.00299086 0.00708531 -0.00551726 -0.00708713 -0.00211659 0.00705751 -0.000489371 -0.00558663
internal_weight=0 753.588 184.877 86.4576 568.711 465.793 333.411 189.281 350.428 46.627 325.505 207.174 81.9992 144.13 132.382 107.281 95.5382 111.636 35.2847
internal_count=2975 2033 501 234 1532 1253 896 508 942 126 875 556 221 388 357 287 257 299 95
is_linear=0
shrinkage=0.01


Tree=40
num_leaves=20
num_cat=0
split_feature=4 5 0 2 1 6 0 6 1 0 0 4 5 2 0 3 1 5 2
split_gain=88.5586 108.448 62.5698 54.7891 33.0214 31.4775 44.6505 39.3534 31.2143 24.3984 22.5294 29.3211 18.6119 18.2344 13.9383 13.7331 13.5604 13.4044 21.3455
threshold=-0.40145849599999994 1.6649372230000001 -0.78384035499999982 -1.4378454209999998 -2.1038020684999998 -0.85210283299999989 0.16634496300000004 1.5481793835000002 1.5356037885000002 1.5190662845000003 -0.90679410949999995 -1.5523071174999996 -2.6869946944999996 -2.4107716684999994 0.30153820400000003 2.0538735285000005 -0.73646545299999999 1.6246025570000002 -0.60636658499999985
decision_type=2 2 2 2 2 2 2 2 2 2 2 2 2 2 2 2 2 2 2
left_child=8 4 -3 9 -2 14 7 15 10 -4 -1 16 -9 -8 -6 -7 -12 -13 -19
right_child=1 2 3 -5 5 6 13 12 -10 -11 11 17 -14 -15 -16 -17 -18 18 -20
leaf_value=-0.0084602187238930742 0.0092205540276978706 -0.010174705309510999 -0.01084153439547678 0.010097893919822269 0.0083251699010706559 0.00042082625347131269 -0.0025182027492555398 0.0044367527558633558 0.0066326136757161305 0.0046583209759110261 -0.0098255019614573776 -0.0018662524112864343 -0.0090552353519262972 0.0070916947864466907 -0.0014173122676093173 0.0096653903831439014 -0.0019297208068113358 -0.00410039345413684 0.011831584435603046
leaf_weight=118.33109697699547 102.91822707653046 98.41892945766449 31.679729789495468 39.830586552619934 115.55949586629868 87.602329552173615 23.613520801067352 11.972479015588759 24.922880262136459 14.947298139333723 62.045764714479446 76.351438403129578 70.02670606970787 120.51696312427521 16.822596281766891 19.679002523422241 33.49247270822525 13.830775707960127 21.453942507505417
leaf_count=319 279 267 86 108 312 234 63 32 67 40 167 204 189 325 45 53 90 37 58
internal_value=0 0.00193137 -0.0047221 0.00148486 0.00409427 0.00296161 0.00132355 -0.00186981 -0.0041533 -0.00587272 -0.00497914 -0.00299086 -0.00708531 0.00551726 0.00708713 0.00211659 -0.00705751 0.000489371 0.00558663
internal_weight=0 753.588 184.877 86.4576 568.711 465.793 333.411 189.281 350.428 46.627 325.505 207.174 81.9992 144.13 132.382 107.281 95.5382 111.636 35.2847
internal_count=2975 2033 501 234 1532 1253 896 508 942 126 875 556 221 388 357 287 257 299 95
is_linear=0
shrinkage=0.01


Tree=41
num_leaves=1
num_cat=0
split_feature=
split_gain=
threshold=
decision_type=
left_child=
right_child=
leaf_value=0
leaf_weight=
leaf_count=
internal_value=
internal_weight=
internal_count=
is_linear=0
shrinkage=1


Tree=42
num_leaves=20
num_cat=0
split_feature=4 5 0 3 1 3 6 0 2 5 2 1 0 5 0 2 6 0 1
split_gain=86.3332 106.182 46.2764 34.3792 30.4252 30.2835 28.5601 52.7646 28.1347 27.4395 27.1594 22.4115 22.0484 25.3421 21.8838 21.0408 17.3923 29.2421 15.5197
threshold=-0.40145849599999994 2.2374473640000003 -0.12301590749999998 2.5114869955000008 1.5356037885000002 -1.1008548254999997 2.8275711755000006 0.13216449550000003 -0.92452301099999989 1.1282323895000002 -1.4378454209999998 -1.8120930679999998 -0.40776687799999994 1.5371655400000004 2.6139736875000001 -0.60636658499999985 0.25533846700000001 0.19314666950000001 0.49564481100000007
decision_type=2 2 2 2 2 2 2 2 2 2 2 2 2 2 2 2 2 2 2
left_child=4 3 -3 5 12 -2 8 -8 9 11 -4 -7 -1 -14 -11 -15 -10 -18 -13
right_child=1 2 10 -5 -6 6 7 -9 16 14 -12 18 13 15 -16 -17 17 -19 -20
leaf_value=0.0076490725474869245 -0.0099765087917175494 0.010768984572088946 0.0065580602706253122 -0.010434451584297821 -0.0065522147240541333 -0.011424515167917964 0.010269738821687706 -0.0079448039823717485 -0.0070772047206521509 0.0096796176122105476 -0.010176844579922498 0.0025370580540794224 0.0046161051334408778 0.0033093526072393909 -0.0089592952275603828 -0.011018302659200943 0.0013195672690913905 -0.0089604132002475897 -0.0066676514155229218
leaf_weight=154.87646412849426 52.899357318878174 83.993409842252731 18.090180993080139 65.374735534191132 24.892516046762466 21.755598843097687 45.528450191020966 24.442118853330612 157.27013179659843 40.110642850399017 20.904112607240677 63.749491602182388 129.00087559223175 19.073447346687317 7.472674846649169 22.155877143144608 83.671943932771683 41.343591719865799 25.702609896659851
leaf_count=418 143 229 49 177 67 59 123 66 425 108 57 171 346 51 20 60 225 112 69
internal_value=0 -0.00190887 0.00658946 -0.00356969 0.00410299 -0.0027739 -0.00202835 0.00390703 -0.00296991 0.000397496 -0.00241321 -0.00232167 0.00491883 0.00243483 0.00675249 -0.00439006 -0.00486414 -0.0020801 -0.000107766
internal_weight=0 752.309 122.988 629.321 349.999 563.947 511.047 69.9706 441.077 158.791 38.9943 111.208 325.107 170.23 47.5833 41.2293 282.286 125.016 89.4521
internal_count=2975 2033 335 1698 942 1521 1378 189 1189 427 106 299 875 457 128 111 762 337 240
is_linear=0
shrinkage=0.01


Tree=43
num_leaves=20
num_cat=0
split_feature=4 5 0 3 1 3 6 0 2 5 2 1 0 5 0 2 6 0 1
split_gain=86.3332 106.182 46.2764 34.3792 30.4252 30.2835 28.5601 52.7646 28.1347 27.4395 27.1594 22.4115 22.0484 25.3421 21.8838 21.0408 17.3923 29.2421 15.5197
threshold=-0.40145849599999994 2.2374473640000003 -0.12301590749999998 2.5114869955000008 1.5356037885000002 -1.1008548254999997 2.8275711755000006 0.13216449550000003 -0.92452301099999989 1.1282323895000002 -1.4378454209999998 -1.8120930679999998 -0.40776687799999994 1.5371655400000004 2.6139736875000001 -0.60636658499999985 0.25533846700000001 0.19314666950000001 0.49564481100000007
decision_type=2 2 2 2 2 2 2 2 2 2 2 2 2 2 2 2 2 2 2
left_child=4 3 -3 5 12 -2 8 -8 9 11 -4 -7 -1 -14 -11 -15 -10 -18 -13
right_child=1 2 10 -5 -6 6 7 -9 16 14 -12 18 13 15 -16 -17 17 -19 -20
leaf_value=-0.0076490725474869245 0.0099765087917175494 -0.010768984572088946 -0.0065580602706253122 0.010434451584297821 0.0065522147240541333 0.011424515167917964 -0.010269738821687706 0.0079448039823717485 0.0070772047206521509 -0.0096796176122105476 0.010176844579922498 -0.0025370580540794224 -0.0046161051334408778 -0.0033093526072393909 0.0089592952275603828 0.011018302659200943 -0.0013195672690913905 0.0089604132002475897 0.0066676514155229218
leaf_weight=154.87646412849426 52.899357318878174 83.993409842252731 18.090180993080139 65.374735534191132 24.892516046762466 21.755598843097687 45.528450191020966 24.442118853330612 157.27013179659843 40.110642850399017 20.904112607240677 63.749491602182388 129.00087559223175 19.073447346687317 7.472674846649169 22.155877143144608 83.671943932771683 41.343591719865799 25.702609896659851
leaf_count=418 143 229 49 177 67 59 123 66 425 108 57 171 346 51 20 60 225 112 69
internal_value=0 0.00190887 -0.00658946 0.00356969 -0.00410299 0.0027739 0.00202835 -0.00390703 0.00296991 -0.000397496 0.00241321 0.00232167 -0.00491883 -0.00243483 -0.00675249 0.00439006 0.00486414 0.0020801 0.000107766
internal_weight=0 752.309 122.988 629.321 349.999 563.947 511.047 69.9706 441.077 158.791 38.9943 111.208 325.107 170.23 47.5833 41.2293 282.286 125.016 89.4521
internal_count=2975 2033 335 1698 942 1521 1378 189 1189 427 106 299 875 457 128 111 762 337 240
is_linear=0
shrinkage=0.01


Tree=44
num_leaves=1
num_cat=0
split_feature=
split_gain=
threshold=
decision_type=
left_child=
right_child=
leaf_value=0
leaf_weight=
leaf_count=
internal_value=
internal_weight=
internal_count=
is_linear=0
shrinkage=1


Tree=45
num_leaves=20
num_cat=0
split_feature=4 0 5 6 2 4 2 0 1 5 3 5 0 2 3 2 0 3 5
split_gain=84.591 90.0459 102.562 105.13 57.6101 39.3166 35.7135 30.1921 28.4041 24.475 19.1371 19.104 18.4123 17.1977 16.184 12.4039 11.9312 11.8055 11.0059
threshold=-1.5523071174999996 -0.87409635349999981 1.3056089830000002 1.6548514790000002 -1.6915456109999998 0.35622240400000005 1.9955654000000003 1.1405512290000004 0.52308455700000012 -0.34010464299999993 -0.16907882249999998 -1.3797717829999998 0.86176961800000018 0.54073123400000012 2.5114869955000008 -4.1826230489999991 2.9351072865000005 -1.0377509434999999 -0.75049074749999989
decision_type=2 2 2 2 2 2 2 2 2 2 2 2 2 2 2 2 2 2 2
left_child=8 2 3 5 7 10 -4 9 -1 -3 -2 -12 13 14 17 -9 -17 -6 -19
right_child=1 4 6 -5 12 -7 -8 15 -10 -11 11 -13 -14 -15 -16 16 -18 18 -20
leaf_value=0.0086816889183807585 -0.0080573175568993335 -0.0081829839143459007 0.0098808458511303494 0.010035719654917508 -0.012170859515257412 -0.0083930622291837117 -0.0089714451842116925 0.0065423946364763143 -0.003039712474707999 0.007788715673366791 -0.0078386999923871319 0.0083274560261290473 -0.0087685625944089549 -0.0078612657469764174 -0.010193232862182796 -0.0022974621163225971 -0.011802580708362254 -0.0038012331389620942 0.0024839514200787768
leaf_weight=131.04250553250313 15.546730071306227 11.157285660505293 150.42968928813934 58.755128681659698 8.5007495284080488 128.63091099262238 10.767837971448897 11.589718878269194 24.546454101800919 68.496134072542191 9.2986589372158033 34.177569180727005 144.62750262022018 82.73978665471077 21.435240775346756 54.359624773263931 17.443645685911179 45.659625679254532 71.470524042844772
leaf_count=354 42 30 409 159 23 348 29 31 66 185 25 92 392 224 58 146 47 123 192
internal_value=0 -0.00112485 0.00241966 -0.00163752 -0.00381289 -0.00529245 0.00862153 0.00114846 0.00683246 0.00555151 0.00146482 0.00486985 -0.0059733 -0.00421412 -0.00216222 -0.00305715 -0.0046066 -0.000791963 3.38634e-05
internal_weight=0 945.086 407.607 246.409 537.48 187.654 161.198 163.046 155.589 79.6534 59.023 43.4762 374.433 229.806 147.066 83.393 71.8033 125.631 117.13
internal_count=2975 2555 1104 666 1451 507 438 439 420 215 159 117 1012 620 396 224 193 338 315
is_linear=0
shrinkage=0.01


Tree=46
num_leaves=20
num_cat=0
split_feature=4 0 5 6 2 4 2 0 1 5 3 5 0 2 3 2 0 3 5
split_gain=84.591 90.0459 102.562 105.13 57.6101 39.3166 35.7135 30.1921 28.4041 24.475 19.1371 19.104 18.4123 17.1977 16.184 12.4039 11.9312 11.8055 11.0059
threshold=-1.5523071174999996 -0.87409635349999981 1.3056089830000002 1.6548514790000002 -1.6915456109999998 0.35622240400000005 1.9955654000000003 1.1405512290000004 0.52308455700000012 -0.34010464299999993 -0.16907882249999998 -1.3797717829999998 0.86176961800000018 0.54073123400000012 2.5114869955000008 -4.1826230489999991 2.9351072865000005 -1.0377509434999999 -0.75049074749999989
decision_type=2 2 2 2 2 2 2 2 2 2 2 2 2 2 2 2 2 2 2
left_child=8 2 3 5 7 10 -4 9 -1 -3 -2 -12 13 14 17 -9 -17 -6 -19
right_child=1 4 6 -5 12 -7 -8 15 -10 -11 11 -13 -14 -15 -16 16 -18 18 -20
leaf_value=-0.0086816889183807585 0.0080573175568993335 0.0081829839143459007 -0.0098808458511303494 -0.010035719654917508 0.012170859515257412 0.0083930622291837117 0.0089714451842116925 -0.0065423946364763143 0.003039712474707999 -0.007788715673366791 0.0078386999923871319 -0.0083274560261290473 0.0087685625944089549 0.0078612657469764174 0.010193232862182796 0.0022974621163225971 0.011802580708362254 0.0038012331389620942 -0.0024839514200787768
leaf_weight=131.04250553250313 15.546730071306227 11.157285660505293 150.42968928813934 58.755128681659698 8.5007495284080488 128.63091099262238 10.767837971448897 11.589718878269194 24.546454101800919 68.496134072542191 9.2986589372158033 34.177569180727005 144.62750262022018 82.73978665471077 21.435240775346756 54.359624773263931 17.443645685911179 45.659625679254532 71.470524042844772
leaf_count=354 42 30 409 159 23 348 29 31 66 185 25 92 392 224 58 146 47 123 192
internal_value=0 0.00112485 -0.00241966 0.00163752 0.00381289 0.00529245 -0.00862153 -0.00114846 -0.00683246 -0.00555151 -0.00146482 -0.00486985 0.0059733 0.00421412 0.00216222 0.00305715 0.0046066 0.000791963 -3.38634e-05
internal_weight=0 945.086 407.607 246.409 537.48 187.654 161.198 163.046 155.589 79.6534 59.023 43.4762 374.433 229.806 147.066 83.393 71.8033 125.631 117.13
internal_count=2975 2555 1104 666 1451 507 438 439 420 215 159 117 1012 620 396 224 193 338 315
is_linear=0
shrinkage=0.01


Tree=47
num_leaves=1
num_cat=0
split_feature=
split_gain=
threshold=
decision_type=
left_child=
right_child=
leaf_value=0
leaf_weight=
leaf_count=
internal_value=
internal_weight=
internal_count=
is_linear=0
shrinkage=1


Tree=48
num_leaves=20
num_cat=0
split_feature=4 0 5 6 2 4 2 0 1 5 3 5 0 2 3 2 3 5 6
split_gain=82.4865 87.786 100.085 102.545 56.1757 38.3663 34.853 29.4579 27.7812 25.6741 18.6468 18.6085 18.0115 16.7877 15.8021 12.1252 11.5245 10.77 10.9925
threshold=-1.5523071174999996 -0.87409635349999981 1.3056089830000002 1.6548514790000002 -1.6915456109999998 0.35622240400000005 1.9955654000000003 1.3968035975000002 0.28786024600000004 0.31882683150000007 -0.16907882249999998 -1.3797717829999998 0.86176961800000018 0.54073123400000012 2.5114869955000008 -4.1826230489999991 -1.0377509434999999 -1.3089616864999998 2.6951317800000005
decision_type=2 2 2 2 2 2 2 2 2 2 2 2 2 2 2 2 2 2 2
left_child=8 2 3 5 7 10 -4 9 -1 -3 -2 -12 13 14 16 -9 -6 18 -18
right_child=1 4 6 -5 12 -7 -8 15 -10 -11 11 -13 -14 -15 -16 -17 17 -19 -20
leaf_value=0.0088258257495830075 -0.0079593860359430269 -0.0026793996020436097 0.0097735499055876755 0.0099243363537384419 -0.012039710067146932 -0.0082970069028844035 -0.0088507044144374419 0.0061065992182585491 -0.0018736513410416147 0.0086466066863103968 -0.0077366456441613895 0.0082215515141503635 -0.0086703357436936409 -0.0077688698834708437 -0.010080708333216217 -0.0053591507785491592 -0.0087819918729997032 0.0017853361277009731 0.0053021375274091651
leaf_weight=125.23407226800919 15.528297573328016 29.803611159324646 150.05587565898895 58.623235136270523 8.4789152443408948 128.38677713274956 10.769191592931746 10.856543421745299 30.100278258323669 60.934065312147141 9.2957185208797437 34.156388908624649 144.3178476691246 82.608377128839493 21.38584378361702 61.307701945304871 21.885567694902424 87.808060884475708 7.4205938875675193
leaf_count=339 42 80 409 159 23 348 29 29 81 165 25 92 392 224 58 165 59 236 20
internal_value=0 -0.00111159 0.00239209 -0.00161845 -0.00376682 -0.00522995 0.00852643 0.00113416 0.00675251 0.00492648 0.00144633 0.00480761 -0.00590207 -0.00416194 -0.00213469 -0.00363422 -0.000781656 3.34121e-05 -0.00521576
internal_weight=0 943.623 406.815 245.99 536.807 187.367 160.825 162.902 155.334 90.7377 58.9804 43.4521 373.905 229.587 146.979 72.1642 125.593 117.114 29.3062
internal_count=2975 2555 1104 666 1451 507 438 439 420 245 159 117 1012 620 396 194 338 315 79
is_linear=0
shrinkage=0.01


Tree=49
num_leaves=20
num_cat=0
split_feature=4 0 5 6 2 4 2 0 1 5 3 5 0 2 3 2 3 5 6
split_gain=82.4865 87.786 100.085 102.545 56.1757 38.3663 34.853 29.4579 27.7812 25.6741 18.6468 18.6085 18.0115 16.7877 15.8021 12.1252 11.5245 10.77 10.9925
threshold=-1.5523071174999996 -0.87409635349999981 1.3056089830000002 1.6548514790000002 -1.6915456109999998 0.35622240400000005 1.9955654000000003 1.3968035975000002 0.28786024600000004 0.31882683150000007 -0.16907882249999998 -1.3797717829999998 0.86176961800000018 0.54073123400000012 2.5114869955000008 -4.1826230489999991 -1.0377509434999999 -1.3089616864999998 2.6951317800000005
decision_type=2 2 2 2 2 2 2 2 2 2 2 2 2 2 2 2 2 2 2
left_child=8 2 3 5 7 10 -4 9 -1 -3 -2 -12 13 14 16 -9 -6 18 -18
right_child=1 4 6 -5 12 -7 -8 15 -10 -11 11 -13 -14 -15 -16 -17 17 -19 -20
leaf_value=-0.0088258257495830075 0.0079593860359430269 0.0026793996020436097 -0.0097735499055876755 -0.0099243363537384419 0.012039710067146932 0.0082970069028844035 0.0088507044144374419 -0.0061065992182585491 0.0018736513410416147 -0.0086466066863103968 0.0077366456441613895 -0.0082215515141503635 0.0086703357436936409 0.0077688698834708437 0.010080708333216217 0.0053591507785491592 0.0087819918729997032 -0.0017853361277009731 -0.0053021375274091651
leaf_weight=125.23407226800919 15.528297573328016 29.803611159324646 150.05587565898895 58.623235136270523 8.4789152443408948 128.38677713274956 10.769191592931746 10.856543421745299 30.100278258323669 60.934065312147141 9.2957185208797437 34.156388908624649 144.3178476691246 82.608377128839493 21.38584378361702 61.307701945304871 21.885567694902424 87.808060884475708 7.4205938875675193
leaf_count=339 42 80 409 159 23 348 29 29 81 165 25 92 392 224 58 165 59 236 20
internal_value=0 0.00111159 -0.00239209 0.00161845 0.00376682 0.00522995 -0.00852643 -0.00113416 -0.00675251 -0.00492648 -0.00144633 -0.00480761 0.00590207 0.00416194 0.00213469 0.00363422 0.000781656 -3.34121e-05 0.00521576
internal_weight=0 943.623 406.815 245.99 536.807 187.367 160.825 162.902 155.334 90.7377 58.9804 43.4521 373.905 229.587 146.979 72.1642 125.593 117.114 29.3062
internal_count=2975 2555 1104 666 1451 507 438 439 420 245 159 117 1012 620 396 194 338 315 79
is_linear=0
shrinkage=0.01


Tree=50
num_leaves=1
num_cat=0
split_feature=
split_gain=
threshold=
decision_type=
left_child=
right_child=
leaf_value=0
leaf_weight=
leaf_count=
internal_value=
internal_weight=
internal_count=
is_linear=0
shrinkage=1


Tree=51
num_leaves=20
num_cat=0
split_feature=4 5 0 3 1 3 6 0 2 2 5 1 0 0 4 6 0 1 5
split_gain=80.7623 99.6254 43.4992 32.7378 28.9674 28.7687 26.8082 49.5578 26.6035 25.686 25.6372 21.6581 20.783 20.6973 26.5266 16.5377 27.5282 14.8768 14.7427
threshold=-0.40145849599999994 2.2374473640000003 -0.12301590749999998 2.5114869955000008 1.5356037885000002 -1.1008548254999997 2.8275711755000006 0.13216449550000003 -0.92452301099999989 -1.4378454209999998 1.1282323895000002 -1.8120930679999998 2.6139736875000001 -0.90679410949999995 -1.5523071174999996 0.25533846700000001 0.19314666950000001 0.49564481100000007 -2.5057524694999995
decision_type=2 2 2 2 2 2 2 2 2 2 2 2 2 2 2 2 2 2 2
left_child=4 3 -3 5 13 -2 8 -8 10 -4 11 -7 -12 -1 -15 -10 18 -13 -17
right_child=1 2 9 -5 -6 6 7 -9 15 -11 12 17 -14 14 -16 16 -18 -19 -20
leaf_value=0.0081246506398919768 -0.0097260884595208805 0.010492184525487384 0.0063998025922960937 -0.010182810241077575 -0.0064340809162804552 -0.011202285249528241 0.0099978325856136981 -0.0077040187204846112 -0.0068798672015968664 -0.0099239938986112591 0.0094246360089344419 0.0025417739993241124 -0.0087585374226720122 0.0067478473076795099 -0.00044555703178413052 -0.008151948050723121 -0.0086993006176374257 -0.006481496858920981 0.0031691024683072585
leaf_weight=117.45521262288094 52.580192685127258 83.217522501945496 18.014876306056976 64.952930748462677 24.829273402690887 21.621009349822998 45.254018783569336 24.311442971229553 156.54288947582245 20.733807116746902 39.951042890548706 63.671003401279449 7.4596194028854361 95.001066446304321 111.35033768415451 13.776343107223509 41.07251363992691 25.625751823186874 69.699466705322266
leaf_count=319 143 229 49 177 67 59 123 66 425 57 108 171 20 257 299 37 112 69 188
internal_value=0 -0.00185172 0.00641705 -0.00346142 0.0039754 -0.002684 -0.00195652 0.00381146 -0.00286967 -0.0023348 0.000408821 -0.00222201 0.00656369 0.0047736 0.00286618 -0.00471632 -0.00199699 -4.76605e-05 0.00130074
internal_weight=0 748.484 121.966 626.518 348.636 561.565 508.985 69.5655 439.42 38.7487 158.328 110.918 47.4107 323.807 206.351 281.091 124.548 89.2968 83.4758
internal_count=2975 2033 335 1698 942 1521 1378 189 1189 106 427 299 128 875 556 762 337 240 225
is_linear=0
shrinkage=0.01


Tree=52
num_leaves=20
num_cat=0
split_feature=4 5 0 3 1 3 6 0 2 2 5 1 0 0 4 6 0 1 5
split_gain=80.7623 99.6254 43.4992 32.7378 28.9674 28.7687 26.8082 49.5578 26.6035 25.686 25.6372 21.6581 20.783 20.6973 26.5266 16.5377 27.5282 14.8768 14.7427
threshold=-0.40145849599999994 2.2374473640000003 -0.12301590749999998 2.5114869955000008 1.5356037885000002 -1.1008548254999997 2.8275711755000006 0.13216449550000003 -0.92452301099999989 -1.4378454209999998 1.1282323895000002 -1.8120930679999998 2.6139736875000001 -0.90679410949999995 -1.5523071174999996 0.25533846700000001 0.19314666950000001 0.49564481100000007 -2.5057524694999995
decision_type=2 2 2 2 2 2 2 2 2 2 2 2 2 2 2 2 2 2 2
left_child=4 3 -3 5 13 -2 8 -8 10 -4 11 -7 -12 -1 -15 -10 18 -13 -17
right_child=1 2 9 -5 -6 6 7 -9 15 -11 12 17 -14 14 -16 16 -18 -19 -20
leaf_value=-0.0081246506398919768 0.0097260884595208805 -0.010492184525487384 -0.0063998025922960937 0.010182810241077575 0.0064340809162804552 0.011202285249528241 -0.0099978325856136981 0.0077040187204846112 0.0068798672015968664 0.0099239938986112591 -0.0094246360089344419 -0.0025417739993241124 0.0087585374226720122 -0.0067478473076795099 0.00044555703178413052 0.008151948050723121 0.0086993006176374257 0.006481496858920981 -0.0031691024683072585
leaf_weight=117.45521262288094 52.580192685127258 83.217522501945496 18.014876306056976 64.952930748462677 24.829273402690887 21.621009349822998 45.254018783569336 24.311442971229553 156.54288947582245 20.733807116746902 39.951042890548706 63.671003401279449 7.4596194028854361 95.001066446304321 111.35033768415451 13.776343107223509 41.07251363992691 25.625751823186874 69.699466705322266
leaf_count=319 143 229 49 177 67 59 123 66 425 57 108 171 20 257 299 37 112 69 188
internal_value=0 0.00185172 -0.00641705 0.00346142 -0.0039754 0.002684 0.00195652 -0.00381146 0.00286967 0.0023348 -0.000408821 0.00222201 -0.00656369 -0.0047736 -0.00286618 0.00471632 0.00199699 4.76605e-05 -0.00130074
internal_weight=0 748.484 121.966 626.518 348.636 561.565 508.985 69.5655 439.42 38.7487 158.328 110.918 47.4107 323.807 206.351 281.091 124.548 89.2968 83.4758
internal_count=2975 2033 335 1698 942 1521 1378 189 1189 106 427 299 128 875 556 762 337 240 225
is_linear=0
shrinkage=0.01


Tree=53
num_leaves=1
num_cat=0
split_feature=
split_gain=
threshold=
decision_type=
left_child=
right_child=
leaf_value=0
leaf_weight=
leaf_count=
internal_value=
internal_weight=
internal_count=
is_linear=0
shrinkage=1


Tree=54
num_leaves=20
num_cat=0
split_feature=4 5 0 3 1 3 6 0 2 5 2 1 0 5 0 2 1 6 0
split_gain=78.7408 97.2206 42.5196 31.9892 28.237 28.0891 26.1402 48.3603 25.9771 28.9008 25.0793 22.9673 20.3098 24.1265 20.0811 19.8767 15.7022 14.6735 32.627
threshold=-0.40145849599999994 2.2374473640000003 -0.12301590749999998 2.5114869955000008 1.5356037885000002 -1.1008548254999997 2.8275711755000006 0.13216449550000003 -0.65093644899999992 1.1282323895000002 -1.4378454209999998 -1.8120930679999998 -0.40776687799999994 1.5371655400000004 1.5190662845000003 -0.60636658499999985 0.49564481100000007 0.37610903750000008 -0.78384035499999982
decision_type=2 2 2 2 2 2 2 2 2 2 2 2 2 2 2 2 2 2 2
left_child=4 3 -3 5 12 -2 8 -8 9 11 -4 -7 -1 -14 -11 -15 -13 -10 -19
right_child=1 2 10 -5 -6 6 7 -9 17 14 -12 16 13 15 -16 -17 -18 18 -20
leaf_value=0.0073475844118084865 -0.0096192002190291486 0.010390045856473578 0.006321152917227406 -0.010074432396443445 -0.0063572017612237419 -0.011145387806164567 0.0098888170227245803 -0.0076169960081792967 -0.0068584335213827631 0.0094616080514278687 -0.0098264671916773443 0.0019009629927169125 0.004460766421671444 0.0031389797573385027 -0.0056287118508936626 -0.010815380159241293 -0.0067424072192027364 0.003851077535678378 -0.0074511332845641851
leaf_weight=153.796392172575 52.456427484750748 82.917119175195694 17.995962083339691 64.777488350868225 24.794710636138916 24.833635717630386 45.143599957227707 24.261673212051392 153.0083444416523 41.706121504306793 20.660880863666534 76.949342787265778 128.55603659152985 19.032306879758835 11.182983875274656 22.014877825975418 28.916432112455368 49.629494518041611 52.62533050775528
leaf_count=418 143 229 49 177 67 68 123 66 416 113 57 207 346 51 30 60 78 134 143
internal_value=0 -0.00183053 0.00635205 -0.00342094 0.00392743 -0.00265228 -0.00193324 0.00376939 -0.00283512 3.37285e-05 -0.00230925 -0.00249021 0.00471594 0.00232956 0.00627088 -0.00434518 -0.000459908 -0.00489843 -0.00196559
internal_weight=0 747.065 121.574 625.491 348.194 560.713 508.257 69.4053 438.852 183.589 38.6568 130.699 323.4 169.603 52.8891 41.0472 105.866 255.263 102.255
internal_count=2975 2033 335 1698 942 1521 1378 189 1189 496 106 353 875 457 143 111 285 693 277
is_linear=0
shrinkage=0.01


Tree=55
num_leaves=20
num_cat=0
split_feature=4 5 0 3 1 3 6 0 2 5 2 1 0 5 0 2 1 6 0
split_gain=78.7408 97.2206 42.5196 31.9892 28.237 28.0891 26.1402 48.3603 25.9771 28.9008 25.0793 22.9673 20.3098 24.1265 20.0811 19.8767 15.7022 14.6735 32.627
threshold=-0.40145849599999994 2.2374473640000003 -0.12301590749999998 2.5114869955000008 1.5356037885000002 -1.1008548254999997 2.8275711755000006 0.13216449550000003 -0.65093644899999992 1.1282323895000002 -1.4378454209999998 -1.8120930679999998 -0.40776687799999994 1.5371655400000004 1.5190662845000003 -0.60636658499999985 0.49564481100000007 0.37610903750000008 -0.78384035499999982
decision_type=2 2 2 2 2 2 2 2 2 2 2 2 2 2 2 2 2 2 2
left_child=4 3 -3 5 12 -2 8 -8 9 11 -4 -7 -1 -14 -11 -15 -13 -10 -19
right_child=1 2 10 -5 -6 6 7 -9 17 14 -12 16 13 15 -16 -17 -18 18 -20
leaf_value=-0.0073475844118084865 0.0096192002190291486 -0.010390045856473578 -0.006321152917227406 0.010074432396443445 0.0063572017612237419 0.011145387806164567 -0.0098888170227245803 0.0076169960081792967 0.0068584335213827631 -0.0094616080514278687 0.0098264671916773443 -0.0019009629927169125 -0.004460766421671444 -0.0031389797573385027 0.0056287118508936626 0.010815380159241293 0.0067424072192027364 -0.003851077535678378 0.0074511332845641851
leaf_weight=153.796392172575 52.456427484750748 82.917119175195694 17.995962083339691 64.777488350868225 24.794710636138916 24.833635717630386 45.143599957227707 24.261673212051392 153.0083444416523 41.706121504306793 20.660880863666534 76.949342787265778 128.55603659152985 19.032306879758835 11.182983875274656 22.014877825975418 28.916432112455368 49.629494518041611 52.62533050775528
leaf_count=418 143 229 49 177 67 68 123 66 416 113 57 207 346 51 30 60 78 134 143
internal_value=0 0.00183053 -0.00635205 0.00342094 -0.00392743 0.00265228 0.00193324 -0.00376939 0.00283512 -3.37285e-05 0.00230925 0.00249021 -0.00471594 -0.00232956 -0.00627088 0.00434518 0.000459908 0.00489843 0.00196559
internal_weight=0 747.065 121.574 625.491 348.194 560.713 508.257 69.4053 438.852 183.589 38.6568 130.699 323.4 169.603 52.8891 41.0472 105.866 255.263 102.255
internal_count=2975 2033 335 1698 942 1521 1378 189 1189 496 106 353 875 457 143 111 285 693 277
is_linear=0
shrinkage=0.01


Tree=56
num_leaves=1
num_cat=0
split_feature=
split_gain=
threshold=
decision_type=
left_child=
right_child=
leaf_value=0
leaf_weight=
leaf_count=
internal_value=
internal_weight=
internal_count=
is_linear=0
shrinkage=1


Tree=57
num_leaves=20
num_cat=0
split_feature=4 0 5 6 2 4 2 0 1 5 3 5 0 2 3 2 3 5 6
split_gain=77.1562 82.1646 93.7982 96.9025 53.1568 36.4306 33.6855 27.8335 26.7435 24.336 17.8403 18.0771 17.122 16.0411 14.9726 11.6163 10.9292 10.2816 10.4747
threshold=-1.5523071174999996 -0.87409635349999981 1.3056089830000002 1.6548514790000002 -1.6915456109999998 0.35622240400000005 1.9955654000000003 1.3968035975000002 0.28786024600000004 0.31882683150000007 -0.16907882249999998 -1.3797717829999998 0.86176961800000018 0.54073123400000012 2.5114869955000008 -4.1826230489999991 -1.0377509434999999 -1.3089616864999998 2.6951317800000005
decision_type=2 2 2 2 2 2 2 2 2 2 2 2 2 2 2 2 2 2 2
left_child=8 2 3 5 7 10 -4 9 -1 -3 -2 -12 13 14 16 -9 -6 18 -18
right_child=1 4 6 -5 12 -7 -8 15 -10 -11 11 -13 -14 -15 -16 -17 17 -19 -20
